svm_type c_svc
kernel_type rbf
gamma 0.01
nr_class 2
total_sv 797
rho 18.3461
label 1 -1
nr_sv 403 394
SV
2930.878574136788 1:0.5 2:0.71428571 3:0.26402714 4:0.6 5:0.58032881 6:0.6001998 7:1 8:0.75 9:7 10:15 11:7 
75553.21098054723 1:0.5 2:0.71428571 3:0.26402714 4:0.6 5:0.58032881 6:0.6001998 7:1 8:0.75 9:9 10:9 11:7 
100000 1:0.5 2:0.71428571 3:0.26402714 4:0.6 5:0.58032881 6:0.6001998 7:1 8:0.75 9:10 10:8 11:7 
60461.5293138526 1:0.5 2:0.71428571 3:0.26402714 4:0.6 5:0.58032881 6:0.6001998 7:1 8:0.75 9:11 10:7 11:7 
100000 1:0.5 2:0.71428571 3:0.26402714 4:0.6 5:0.58032881 6:0.6001998 7:1 8:0.75 9:11 10:9 11:7 
100000 1:0.5 2:0.71428571 3:0.26402714 4:0.6 5:0.58032881 6:0.6001998 7:1 8:0.75 9:12 10:8 11:7 
100000 1:0.5 2:0.71428571 3:0.26402714 4:0.6 5:0.58032881 6:0.6001998 7:1 8:0.75 9:12 10:11 11:7 
100000 1:0.5 2:0.71428571 3:0.26402714 4:0.6 5:0.58032881 6:0.6001998 7:1 8:0.75 9:12 10:12 11:7 
100000 1:0.5 2:0.71428571 3:0.26402714 4:0.6 5:0.58032881 6:0.6001998 7:1 8:0.75 9:13 10:9 11:7 
100000 1:0.5 2:0.71428571 3:0.26402714 4:0.6 5:0.58032881 6:0.6001998 7:1 8:0.75 9:7 10:15 11:8 
4448.103734890807 1:0.5 2:0.71428571 3:0.26402714 4:0.6 5:0.58032881 6:0.6001998 7:1 8:0.75 9:8 10:16 11:8 
36660.1002173286 1:0.5 2:0.71428571 3:0.26402714 4:0.6 5:0.58032881 6:0.6001998 7:1 8:0.75 9:9 10:8 11:8 
100000 1:0.5 2:0.71428571 3:0.26402714 4:0.6 5:0.58032881 6:0.6001998 7:1 8:0.75 9:9 10:15 11:8 
100000 1:0.5 2:0.71428571 3:0.26402714 4:0.6 5:0.58032881 6:0.6001998 7:1 8:0.75 9:9 10:16 11:8 
100000 1:0.5 2:0.71428571 3:0.26402714 4:0.6 5:0.58032881 6:0.6001998 7:1 8:0.75 9:10 10:7 11:8 
33385.5803921289 1:0.5 2:0.71428571 3:0.26402714 4:0.6 5:0.58032881 6:0.6001998 7:1 8:0.75 9:10 10:13 11:8 
100000 1:0.5 2:0.71428571 3:0.26402714 4:0.6 5:0.58032881 6:0.6001998 7:1 8:0.75 9:11 10:7 11:8 
100000 1:0.5 2:0.71428571 3:0.26402714 4:0.6 5:0.58032881 6:0.6001998 7:1 8:0.75 9:11 10:9 11:8 
100000 1:0.5 2:0.71428571 3:0.26402714 4:0.6 5:0.58032881 6:0.6001998 7:1 8:0.75 9:11 10:12 11:8 
100000 1:0.5 2:0.71428571 3:0.26402714 4:0.6 5:0.58032881 6:0.6001998 7:1 8:0.75 9:12 10:10 11:8 
6131.650253237997 1:0.5 2:0.71428571 3:0.26402714 4:0.6 5:0.58032881 6:0.6001998 7:1 8:0.75 9:7 10:7 11:9 
100000 1:0.5 2:0.71428571 3:0.26402714 4:0.6 5:0.58032881 6:0.6001998 7:1 8:0.75 9:7 10:14 11:9 
100000 1:0.5 2:0.71428571 3:0.26402714 4:0.6 5:0.58032881 6:0.6001998 7:1 8:0.75 9:9 10:15 11:9 
100000 1:0.5 2:0.71428571 3:0.26402714 4:0.6 5:0.58032881 6:0.6001998 7:1 8:0.75 9:9 10:16 11:9 
100000 1:0.5 2:0.71428571 3:0.26402714 4:0.6 5:0.58032881 6:0.6001998 7:1 8:0.75 9:11 10:9 11:9 
74413.99433595399 1:0.5 2:0.71428571 3:0.26402714 4:0.6 5:0.58032881 6:0.6001998 7:1 8:0.75 9:11 10:10 11:9 
100000 1:0.5 2:0.71428571 3:0.26402714 4:0.6 5:0.58032881 6:0.6001998 7:1 8:0.75 9:11 10:11 11:9 
100000 1:0.5 2:0.71428571 3:0.26402714 4:0.6 5:0.58032881 6:0.6001998 7:1 8:0.75 9:12 10:9 11:9 
100000 1:0.5 2:0.71428571 3:0.26402714 4:0.6 5:0.58032881 6:0.6001998 7:1 8:0.75 9:12 10:10 11:9 
100000 1:0.5 2:0.71428571 3:0.26402714 4:0.6 5:0.58032881 6:0.6001998 7:1 8:0.75 9:13 10:9 11:9 
100000 1:0.5 2:0.71428571 3:0.26402714 4:0.6 5:0.58032881 6:0.6001998 7:1 8:0.75 9:9 10:15 11:10 
83198.70111831138 1:0.5 2:0.71428571 3:0.26402714 4:0.6 5:0.58032881 6:0.6001998 7:1 8:0.75 9:10 10:7 11:10 
88807.81530388749 1:0.5 2:0.71428571 3:0.26402714 4:0.6 5:0.58032881 6:0.6001998 7:1 8:0.75 9:10 10:8 11:10 
100000 1:0.5 2:0.71428571 3:0.26402714 4:0.6 5:0.58032881 6:0.6001998 7:1 8:0.75 9:10 10:12 11:10 
100000 1:0.5 2:0.71428571 3:0.26402714 4:0.6 5:0.58032881 6:0.6001998 7:1 8:0.75 9:11 10:8 11:10 
100000 1:0.5 2:0.71428571 3:0.26402714 4:0.6 5:0.58032881 6:0.6001998 7:1 8:0.75 9:11 10:9 11:10 
100000 1:0.5 2:0.71428571 3:0.26402714 4:0.6 5:0.58032881 6:0.6001998 7:1 8:0.75 9:11 10:10 11:10 
100000 1:0.5 2:0.71428571 3:0.26402714 4:0.6 5:0.58032881 6:0.6001998 7:1 8:0.75 9:12 10:8 11:10 
100000 1:0.5 2:0.71428571 3:0.26402714 4:0.6 5:0.58032881 6:0.6001998 7:1 8:0.75 9:14 10:8 11:10 
100000 1:0.5 2:0.71428571 3:0.26402714 4:0.6 5:0.58032881 6:0.6001998 7:1 8:0.75 9:7 10:12 11:11 
60669.97558928313 1:0.5 2:0.71428571 3:0.26402714 4:0.6 5:0.58032881 6:0.6001998 7:1 8:0.75 9:10 10:9 11:11 
100000 1:0.5 2:0.71428571 3:0.26402714 4:0.6 5:0.58032881 6:0.6001998 7:1 8:0.75 9:10 10:10 11:11 
100000 1:0.5 2:0.71428571 3:0.26402714 4:0.6 5:0.58032881 6:0.6001998 7:1 8:0.75 9:11 10:7 11:11 
100000 1:0.5 2:0.71428571 3:0.26402714 4:0.6 5:0.58032881 6:0.6001998 7:1 8:0.75 9:11 10:8 11:11 
100000 1:0.5 2:0.71428571 3:0.26402714 4:0.6 5:0.58032881 6:0.6001998 7:1 8:0.75 9:11 10:9 11:11 
100000 1:0.5 2:0.71428571 3:0.26402714 4:0.6 5:0.58032881 6:0.6001998 7:1 8:0.75 9:12 10:7 11:11 
100000 1:0.5 2:0.71428571 3:0.26402714 4:0.6 5:0.58032881 6:0.6001998 7:1 8:0.75 9:7 10:12 11:12 
77546.25719896548 1:0.5 2:0.71428571 3:0.26402714 4:0.6 5:0.58032881 6:0.6001998 7:1 8:0.75 9:8 10:14 11:12 
100000 1:0.5 2:0.71428571 3:0.26402714 4:0.6 5:0.58032881 6:0.6001998 7:1 8:0.75 9:9 10:11 11:12 
100000 1:0.5 2:0.71428571 3:0.26402714 4:0.6 5:0.58032881 6:0.6001998 7:1 8:0.75 9:9 10:12 11:12 
100000 1:0.5 2:0.71428571 3:0.26402714 4:0.6 5:0.58032881 6:0.6001998 7:1 8:0.75 9:9 10:13 11:12 
100000 1:0.5 2:0.71428571 3:0.26402714 4:0.6 5:0.58032881 6:0.6001998 7:1 8:0.75 9:10 10:8 11:12 
100000 1:0.5 2:0.71428571 3:0.26402714 4:0.6 5:0.58032881 6:0.6001998 7:1 8:0.75 9:11 10:7 11:12 
100000 1:0.5 2:0.71428571 3:0.26402714 4:0.6 5:0.58032881 6:0.6001998 7:1 8:0.75 9:11 10:9 11:12 
100000 1:0.5 2:0.71428571 3:0.26402714 4:0.6 5:0.58032881 6:0.6001998 7:1 8:0.75 9:7 10:7 11:13 
93388.10895264133 1:0.5 2:0.71428571 3:0.26402714 4:0.6 5:0.58032881 6:0.6001998 7:1 8:0.75 9:8 10:13 11:13 
100000 1:0.5 2:0.71428571 3:0.26402714 4:0.6 5:0.58032881 6:0.6001998 7:1 8:0.75 9:8 10:14 11:13 
24400.45237709774 1:0.5 2:0.71428571 3:0.26402714 4:0.6 5:0.58032881 6:0.6001998 7:1 8:0.75 9:8 10:15 11:13 
100000 1:0.5 2:0.71428571 3:0.26402714 4:0.6 5:0.58032881 6:0.6001998 7:1 8:0.75 9:9 10:9 11:13 
100000 1:0.5 2:0.71428571 3:0.26402714 4:0.6 5:0.58032881 6:0.6001998 7:1 8:0.75 9:9 10:11 11:13 
100000 1:0.5 2:0.71428571 3:0.26402714 4:0.6 5:0.58032881 6:0.6001998 7:1 8:0.75 9:9 10:13 11:13 
100000 1:0.5 2:0.71428571 3:0.26402714 4:0.6 5:0.58032881 6:0.6001998 7:1 8:0.75 9:9 10:14 11:13 
100000 1:0.5 2:0.71428571 3:0.26402714 4:0.6 5:0.58032881 6:0.6001998 7:1 8:0.75 9:10 10:7 11:13 
100000 1:0.5 2:0.71428571 3:0.26402714 4:0.6 5:0.58032881 6:0.6001998 7:1 8:0.75 9:11 10:9 11:13 
100000 1:0.5 2:0.71428571 3:0.26402714 4:0.6 5:0.58032881 6:0.6001998 7:1 8:0.75 9:7 10:11 11:14 
30193.90082493045 1:0.5 2:0.71428571 3:0.26402714 4:0.6 5:0.58032881 6:0.6001998 7:1 8:0.75 9:8 10:8 11:14 
100000 1:0.5 2:0.71428571 3:0.26402714 4:0.6 5:0.58032881 6:0.6001998 7:1 8:0.75 9:8 10:12 11:14 
100000 1:0.5 2:0.71428571 3:0.26402714 4:0.6 5:0.58032881 6:0.6001998 7:1 8:0.75 9:8 10:13 11:14 
72089.92101442306 1:0.5 2:0.71428571 3:0.26402714 4:0.6 5:0.58032881 6:0.6001998 7:1 8:0.75 9:8 10:14 11:14 
100000 1:0.5 2:0.71428571 3:0.26402714 4:0.6 5:0.58032881 6:0.6001998 7:1 8:0.75 9:9 10:7 11:14 
100000 1:0.5 2:0.71428571 3:0.26402714 4:0.6 5:0.58032881 6:0.6001998 7:1 8:0.75 9:9 10:9 11:14 
100000 1:0.5 2:0.71428571 3:0.26402714 4:0.6 5:0.58032881 6:0.6001998 7:1 8:0.75 9:9 10:11 11:14 
100000 1:0.5 2:0.71428571 3:0.26402714 4:0.6 5:0.58032881 6:0.6001998 7:1 8:0.75 9:9 10:13 11:14 
100000 1:0.5 2:0.71428571 3:0.26402714 4:0.6 5:0.58032881 6:0.6001998 7:1 8:0.75 9:7 10:9 11:15 
100000 1:0.5 2:0.71428571 3:0.26402714 4:0.6 5:0.58032881 6:0.6001998 7:1 8:0.75 9:7 10:10 11:15 
100000 1:0.5 2:0.71428571 3:0.26402714 4:0.6 5:0.58032881 6:0.6001998 7:1 8:0.75 9:8 10:8 11:15 
100000 1:0.5 2:0.71428571 3:0.26402714 4:0.6 5:0.58032881 6:0.6001998 7:1 8:0.75 9:8 10:9 11:15 
100000 1:0.5 2:0.71428571 3:0.26402714 4:0.6 5:0.58032881 6:0.6001998 7:1 8:0.75 9:8 10:10 11:15 
100000 1:0.5 2:0.71428571 3:0.26402714 4:0.6 5:0.58032881 6:0.6001998 7:1 8:0.75 9:8 10:11 11:15 
100000 1:0.5 2:0.71428571 3:0.26402714 4:0.6 5:0.58032881 6:0.6001998 7:1 8:0.75 9:8 10:12 11:15 
100000 1:0.5 2:0.71428571 3:0.26402714 4:0.6 5:0.58032881 6:0.6001998 7:1 8:0.75 9:9 10:13 11:15 
100000 1:0.5 2:0.71428571 3:0.26402714 4:0.6 5:0.58032881 6:0.6001998 7:1 8:0.75 9:7 10:9 11:16 
100000 1:0.5 2:0.71428571 3:0.26402714 4:0.6 5:0.58032881 6:0.6001998 7:1 8:0.75 9:7 10:10 11:16 
100000 1:0.5 2:0.71428571 3:0.26402714 4:0.6 5:0.58032881 6:0.6001998 7:1 8:0.75 9:8 10:8 11:16 
100000 1:0.5 2:0.71428571 3:0.26402714 4:0.6 5:0.58032881 6:0.6001998 7:1 8:0.75 9:9 10:7 11:16 
100000 1:0.5 2:0.71428571 3:0.26402714 4:0.6 5:0.58032881 6:0.6001998 7:1 8:0.75 9:9 10:11 11:16 
100000 1:0.5 2:0.71428571 3:0.26402714 4:0.6 5:0.58032881 6:0.6001998 7:1 8:0.75 9:9 10:12 11:16 
100000 1:0.5 2:0.71428571 3:0.26402714 4:0.6 5:0.58032881 6:0.6001998 7:1 8:0.75 9:10 10:7 11:16 
90837.43355175252 1:0.5 2:1 3:1 4:0.65 5:0.3241996 6:0.5004995 7:1 8:0.75 9:7 10:15 11:7 
100000 1:0.5 2:1 3:1 4:0.65 5:0.3241996 6:0.5004995 7:1 8:0.75 9:8 10:16 11:7 
81974.05995214185 1:0.5 2:1 3:1 4:0.65 5:0.3241996 6:0.5004995 7:1 8:0.75 9:9 10:9 11:7 
18441.37227226486 1:0.5 2:1 3:1 4:0.65 5:0.3241996 6:0.5004995 7:1 8:0.75 9:9 10:15 11:7 
100000 1:0.5 2:1 3:1 4:0.65 5:0.3241996 6:0.5004995 7:1 8:0.75 9:10 10:8 11:7 
100000 1:0.5 2:1 3:1 4:0.65 5:0.3241996 6:0.5004995 7:1 8:0.75 9:10 10:10 11:7 
100000 1:0.5 2:1 3:1 4:0.65 5:0.3241996 6:0.5004995 7:1 8:0.75 9:11 10:7 11:7 
77404.53282446245 1:0.5 2:1 3:1 4:0.65 5:0.3241996 6:0.5004995 7:1 8:0.75 9:11 10:11 11:7 
100000 1:0.5 2:1 3:1 4:0.65 5:0.3241996 6:0.5004995 7:1 8:0.75 9:11 10:12 11:7 
100000 1:0.5 2:1 3:1 4:0.65 5:0.3241996 6:0.5004995 7:1 8:0.75 9:12 10:11 11:7 
100000 1:0.5 2:1 3:1 4:0.65 5:0.3241996 6:0.5004995 7:1 8:0.75 9:10 10:8 11:8 
100000 1:0.5 2:1 3:1 4:0.65 5:0.3241996 6:0.5004995 7:1 8:0.75 9:10 10:13 11:8 
100000 1:0.5 2:1 3:1 4:0.65 5:0.3241996 6:0.5004995 7:1 8:0.75 9:11 10:7 11:8 
73691.26666834386 1:0.5 2:1 3:1 4:0.65 5:0.3241996 6:0.5004995 7:1 8:0.75 9:11 10:10 11:8 
100000 1:0.5 2:1 3:1 4:0.65 5:0.3241996 6:0.5004995 7:1 8:0.75 9:11 10:11 11:8 
100000 1:0.5 2:1 3:1 4:0.65 5:0.3241996 6:0.5004995 7:1 8:0.75 9:12 10:10 11:8 
100000 1:0.5 2:1 3:1 4:0.65 5:0.3241996 6:0.5004995 7:1 8:0.75 9:7 10:14 11:9 
100000 1:0.5 2:1 3:1 4:0.65 5:0.3241996 6:0.5004995 7:1 8:0.75 9:9 10:15 11:9 
100000 1:0.5 2:1 3:1 4:0.65 5:0.3241996 6:0.5004995 7:1 8:0.75 9:9 10:16 11:9 
4696.154769241236 1:0.5 2:1 3:1 4:0.65 5:0.3241996 6:0.5004995 7:1 8:0.75 9:10 10:7 11:9 
100000 1:0.5 2:1 3:1 4:0.65 5:0.3241996 6:0.5004995 7:1 8:0.75 9:10 10:9 11:9 
100000 1:0.5 2:1 3:1 4:0.65 5:0.3241996 6:0.5004995 7:1 8:0.75 9:11 10:9 11:9 
100000 1:0.5 2:1 3:1 4:0.65 5:0.3241996 6:0.5004995 7:1 8:0.75 9:11 10:11 11:9 
100000 1:0.5 2:1 3:1 4:0.65 5:0.3241996 6:0.5004995 7:1 8:0.75 9:12 10:9 11:9 
100000 1:0.5 2:1 3:1 4:0.65 5:0.3241996 6:0.5004995 7:1 8:0.75 9:12 10:10 11:9 
100000 1:0.5 2:1 3:1 4:0.65 5:0.3241996 6:0.5004995 7:1 8:0.75 9:13 10:9 11:9 
100000 1:0.5 2:1 3:1 4:0.65 5:0.3241996 6:0.5004995 7:1 8:0.75 9:7 10:12 11:10 
81437.28179404179 1:0.5 2:1 3:1 4:0.65 5:0.3241996 6:0.5004995 7:1 8:0.75 9:9 10:15 11:10 
17598.03477099127 1:0.5 2:1 3:1 4:0.65 5:0.3241996 6:0.5004995 7:1 8:0.75 9:9 10:16 11:10 
100000 1:0.5 2:1 3:1 4:0.65 5:0.3241996 6:0.5004995 7:1 8:0.75 9:10 10:8 11:10 
100000 1:0.5 2:1 3:1 4:0.65 5:0.3241996 6:0.5004995 7:1 8:0.75 9:10 10:9 11:10 
100000 1:0.5 2:1 3:1 4:0.65 5:0.3241996 6:0.5004995 7:1 8:0.75 9:10 10:12 11:10 
100000 1:0.5 2:1 3:1 4:0.65 5:0.3241996 6:0.5004995 7:1 8:0.75 9:11 10:8 11:10 
100000 1:0.5 2:1 3:1 4:0.65 5:0.3241996 6:0.5004995 7:1 8:0.75 9:11 10:9 11:10 
100000 1:0.5 2:1 3:1 4:0.65 5:0.3241996 6:0.5004995 7:1 8:0.75 9:11 10:10 11:10 
100000 1:0.5 2:1 3:1 4:0.65 5:0.3241996 6:0.5004995 7:1 8:0.75 9:11 10:11 11:10 
100000 1:0.5 2:1 3:1 4:0.65 5:0.3241996 6:0.5004995 7:1 8:0.75 9:12 10:8 11:10 
100000 1:0.5 2:1 3:1 4:0.65 5:0.3241996 6:0.5004995 7:1 8:0.75 9:12 10:9 11:10 
100000 1:0.5 2:1 3:1 4:0.65 5:0.3241996 6:0.5004995 7:1 8:0.75 9:12 10:10 11:10 
100000 1:0.5 2:1 3:1 4:0.65 5:0.3241996 6:0.5004995 7:1 8:0.75 9:13 10:8 11:10 
100000 1:0.5 2:1 3:1 4:0.65 5:0.3241996 6:0.5004995 7:1 8:0.75 9:13 10:9 11:10 
100000 1:0.5 2:1 3:1 4:0.65 5:0.3241996 6:0.5004995 7:1 8:0.75 9:14 10:8 11:10 
96725.41273563549 1:0.5 2:1 3:1 4:0.65 5:0.3241996 6:0.5004995 7:1 8:0.75 9:7 10:11 11:11 
100000 1:0.5 2:1 3:1 4:0.65 5:0.3241996 6:0.5004995 7:1 8:0.75 9:7 10:13 11:11 
100000 1:0.5 2:1 3:1 4:0.65 5:0.3241996 6:0.5004995 7:1 8:0.75 9:10 10:8 11:11 
100000 1:0.5 2:1 3:1 4:0.65 5:0.3241996 6:0.5004995 7:1 8:0.75 9:10 10:12 11:11 
100000 1:0.5 2:1 3:1 4:0.65 5:0.3241996 6:0.5004995 7:1 8:0.75 9:11 10:7 11:11 
100000 1:0.5 2:1 3:1 4:0.65 5:0.3241996 6:0.5004995 7:1 8:0.75 9:11 10:11 11:11 
100000 1:0.5 2:1 3:1 4:0.65 5:0.3241996 6:0.5004995 7:1 8:0.75 9:13 10:7 11:11 
100000 1:0.5 2:1 3:1 4:0.65 5:0.3241996 6:0.5004995 7:1 8:0.75 9:13 10:9 11:11 
100000 1:0.5 2:1 3:1 4:0.65 5:0.3241996 6:0.5004995 7:1 8:0.75 9:14 10:8 11:11 
100000 1:0.5 2:1 3:1 4:0.65 5:0.3241996 6:0.5004995 7:1 8:0.75 9:7 10:11 11:12 
100000 1:0.5 2:1 3:1 4:0.65 5:0.3241996 6:0.5004995 7:1 8:0.75 9:7 10:13 11:12 
86398.36648501738 1:0.5 2:1 3:1 4:0.65 5:0.3241996 6:0.5004995 7:1 8:0.75 9:8 10:12 11:12 
100000 1:0.5 2:1 3:1 4:0.65 5:0.3241996 6:0.5004995 7:1 8:0.75 9:9 10:9 11:12 
100000 1:0.5 2:1 3:1 4:0.65 5:0.3241996 6:0.5004995 7:1 8:0.75 9:9 10:12 11:12 
100000 1:0.5 2:1 3:1 4:0.65 5:0.3241996 6:0.5004995 7:1 8:0.75 9:9 10:13 11:12 
81881.73655015531 1:0.5 2:1 3:1 4:0.65 5:0.3241996 6:0.5004995 7:1 8:0.75 9:10 10:7 11:12 
100000 1:0.5 2:1 3:1 4:0.65 5:0.3241996 6:0.5004995 7:1 8:0.75 9:10 10:8 11:12 
100000 1:0.5 2:1 3:1 4:0.65 5:0.3241996 6:0.5004995 7:1 8:0.75 9:10 10:12 11:12 
100000 1:0.5 2:1 3:1 4:0.65 5:0.3241996 6:0.5004995 7:1 8:0.75 9:11 10:7 11:12 
100000 1:0.5 2:1 3:1 4:0.65 5:0.3241996 6:0.5004995 7:1 8:0.75 9:12 10:10 11:12 
100000 1:0.5 2:1 3:1 4:0.65 5:0.3241996 6:0.5004995 7:1 8:0.75 9:13 10:9 11:12 
100000 1:0.5 2:1 3:1 4:0.65 5:0.3241996 6:0.5004995 7:1 8:0.75 9:14 10:8 11:12 
100000 1:0.5 2:1 3:1 4:0.65 5:0.3241996 6:0.5004995 7:1 8:0.75 9:7 10:7 11:13 
100000 1:0.5 2:1 3:1 4:0.65 5:0.3241996 6:0.5004995 7:1 8:0.75 9:7 10:11 11:13 
83085.26710427531 1:0.5 2:1 3:1 4:0.65 5:0.3241996 6:0.5004995 7:1 8:0.75 9:8 10:13 11:13 
100000 1:0.5 2:1 3:1 4:0.65 5:0.3241996 6:0.5004995 7:1 8:0.75 9:9 10:8 11:13 
100000 1:0.5 2:1 3:1 4:0.65 5:0.3241996 6:0.5004995 7:1 8:0.75 9:9 10:9 11:13 
100000 1:0.5 2:1 3:1 4:0.65 5:0.3241996 6:0.5004995 7:1 8:0.75 9:9 10:12 11:13 
100000 1:0.5 2:1 3:1 4:0.65 5:0.3241996 6:0.5004995 7:1 8:0.75 9:9 10:13 11:13 
100000 1:0.5 2:1 3:1 4:0.65 5:0.3241996 6:0.5004995 7:1 8:0.75 9:10 10:7 11:13 
100000 1:0.5 2:1 3:1 4:0.65 5:0.3241996 6:0.5004995 7:1 8:0.75 9:10 10:8 11:13 
100000 1:0.5 2:1 3:1 4:0.65 5:0.3241996 6:0.5004995 7:1 8:0.75 9:10 10:12 11:13 
100000 1:0.5 2:1 3:1 4:0.65 5:0.3241996 6:0.5004995 7:1 8:0.75 9:11 10:11 11:13 
100000 1:0.5 2:1 3:1 4:0.65 5:0.3241996 6:0.5004995 7:1 8:0.75 9:12 10:10 11:13 
100000 1:0.5 2:1 3:1 4:0.65 5:0.3241996 6:0.5004995 7:1 8:0.75 9:13 10:9 11:13 
100000 1:0.5 2:1 3:1 4:0.65 5:0.3241996 6:0.5004995 7:1 8:0.75 9:14 10:8 11:13 
100000 1:0.5 2:1 3:1 4:0.65 5:0.3241996 6:0.5004995 7:1 8:0.75 9:7 10:11 11:14 
100000 1:0.5 2:1 3:1 4:0.65 5:0.3241996 6:0.5004995 7:1 8:0.75 9:8 10:10 11:14 
100000 1:0.5 2:1 3:1 4:0.65 5:0.3241996 6:0.5004995 7:1 8:0.75 9:8 10:12 11:14 
39540.23665587926 1:0.5 2:1 3:1 4:0.65 5:0.3241996 6:0.5004995 7:1 8:0.75 9:9 10:7 11:14 
100000 1:0.5 2:1 3:1 4:0.65 5:0.3241996 6:0.5004995 7:1 8:0.75 9:9 10:8 11:14 
100000 1:0.5 2:1 3:1 4:0.65 5:0.3241996 6:0.5004995 7:1 8:0.75 9:9 10:12 11:14 
100000 1:0.5 2:1 3:1 4:0.65 5:0.3241996 6:0.5004995 7:1 8:0.75 9:9 10:13 11:14 
6346.495386939708 1:0.5 2:1 3:1 4:0.65 5:0.3241996 6:0.5004995 7:1 8:0.75 9:9 10:16 11:14 
100000 1:0.5 2:1 3:1 4:0.65 5:0.3241996 6:0.5004995 7:1 8:0.75 9:10 10:7 11:14 
100000 1:0.5 2:1 3:1 4:0.65 5:0.3241996 6:0.5004995 7:1 8:0.75 9:10 10:12 11:14 
100000 1:0.5 2:1 3:1 4:0.65 5:0.3241996 6:0.5004995 7:1 8:0.75 9:10 10:13 11:14 
100000 1:0.5 2:1 3:1 4:0.65 5:0.3241996 6:0.5004995 7:1 8:0.75 9:14 10:8 11:14 
100000 1:0.5 2:1 3:1 4:0.65 5:0.3241996 6:0.5004995 7:1 8:0.75 9:15 10:8 11:14 
100000 1:0.5 2:1 3:1 4:0.65 5:0.3241996 6:0.5004995 7:1 8:0.75 9:16 10:8 11:14 
36262.83866968147 1:0.5 2:1 3:1 4:0.65 5:0.3241996 6:0.5004995 7:1 8:0.75 9:7 10:9 11:15 
100000 1:0.5 2:1 3:1 4:0.65 5:0.3241996 6:0.5004995 7:1 8:0.75 9:7 10:11 11:15 
100000 1:0.5 2:1 3:1 4:0.65 5:0.3241996 6:0.5004995 7:1 8:0.75 9:8 10:8 11:15 
100000 1:0.5 2:1 3:1 4:0.65 5:0.3241996 6:0.5004995 7:1 8:0.75 9:8 10:9 11:15 
100000 1:0.5 2:1 3:1 4:0.65 5:0.3241996 6:0.5004995 7:1 8:0.75 9:8 10:10 11:15 
100000 1:0.5 2:1 3:1 4:0.65 5:0.3241996 6:0.5004995 7:1 8:0.75 9:9 10:7 11:15 
100000 1:0.5 2:1 3:1 4:0.65 5:0.3241996 6:0.5004995 7:1 8:0.75 9:9 10:8 11:15 
100000 1:0.5 2:1 3:1 4:0.65 5:0.3241996 6:0.5004995 7:1 8:0.75 9:9 10:12 11:15 
100000 1:0.5 2:1 3:1 4:0.65 5:0.3241996 6:0.5004995 7:1 8:0.75 9:10 10:7 11:15 
100000 1:0.5 2:1 3:1 4:0.65 5:0.3241996 6:0.5004995 7:1 8:0.75 9:10 10:12 11:15 
100000 1:0.5 2:1 3:1 4:0.65 5:0.3241996 6:0.5004995 7:1 8:0.75 9:12 10:10 11:15 
100000 1:0.5 2:1 3:1 4:0.65 5:0.3241996 6:0.5004995 7:1 8:0.75 9:13 10:9 11:15 
100000 1:0.5 2:1 3:1 4:0.65 5:0.3241996 6:0.5004995 7:1 8:0.75 9:14 10:9 11:15 
100000 1:0.5 2:1 3:1 4:0.65 5:0.3241996 6:0.5004995 7:1 8:0.75 9:15 10:9 11:15 
100000 1:0.5 2:1 3:1 4:0.65 5:0.3241996 6:0.5004995 7:1 8:0.75 9:16 10:9 11:15 
65633.77972997041 1:0.5 2:1 3:1 4:0.65 5:0.3241996 6:0.5004995 7:1 8:0.75 9:7 10:9 11:16 
17095.54250801447 1:0.5 2:1 3:1 4:0.65 5:0.3241996 6:0.5004995 7:1 8:0.75 9:7 10:10 11:16 
100000 1:0.5 2:1 3:1 4:0.65 5:0.3241996 6:0.5004995 7:1 8:0.75 9:7 10:11 11:16 
100000 1:0.5 2:1 3:1 4:0.65 5:0.3241996 6:0.5004995 7:1 8:0.75 9:7 10:14 11:16 
100000 1:0.5 2:1 3:1 4:0.65 5:0.3241996 6:0.5004995 7:1 8:0.75 9:8 10:8 11:16 
100000 1:0.5 2:1 3:1 4:0.65 5:0.3241996 6:0.5004995 7:1 8:0.75 9:8 10:9 11:16 
100000 1:0.5 2:1 3:1 4:0.65 5:0.3241996 6:0.5004995 7:1 8:0.75 9:8 10:10 11:16 
100000 1:0.5 2:1 3:1 4:0.65 5:0.3241996 6:0.5004995 7:1 8:0.75 9:9 10:8 11:16 
100000 1:0.5 2:1 3:1 4:0.65 5:0.3241996 6:0.5004995 7:1 8:0.75 9:9 10:11 11:16 
87128.98888893446 1:0.5 2:1 3:1 4:0.65 5:0.3241996 6:0.5004995 7:1 8:0.75 9:9 10:12 11:16 
100000 1:0.5 2:1 3:1 4:0.65 5:0.3241996 6:0.5004995 7:1 8:0.75 9:10 10:12 11:16 
100000 1:0.5 2:1 3:1 4:0.65 5:0.3241996 6:0.5004995 7:1 8:0.75 9:10 10:13 11:16 
62161.6028472797 1:0.5 2:1 3:1 4:0.65 5:0.3241996 6:0.5004995 7:1 8:0.75 9:10 10:14 11:16 
100000 1:0.5 2:1 3:1 4:0.65 5:0.3241996 6:0.5004995 7:1 8:0.75 9:11 10:14 11:16 
100000 1:0.5 2:1 3:1 4:0.65 5:0.3241996 6:0.5004995 7:1 8:0.75 9:12 10:10 11:16 
100000 1:0.5 2:1 3:1 4:0.65 5:0.3241996 6:0.5004995 7:1 8:0.75 9:13 10:10 11:16 
100000 1:0.5 2:1 3:1 4:0.65 5:0.3241996 6:0.5004995 7:1 8:0.75 9:14 10:10 11:16 
100000 1:0.5 2:1 3:1 4:0.65 5:0.3241996 6:0.5004995 7:1 8:0.75 9:15 10:10 11:16 
21003.57300567619 1:0.83333333 2:0.28571429 3:0.35223833 4:0.8 5:0.73752524 6:0.7002997 7:0.66666667 8:1 9:7 10:16 11:7 
41888.98139131676 1:0.83333333 2:0.28571429 3:0.35223833 4:0.8 5:0.73752524 6:0.7002997 7:0.66666667 8:1 9:10 10:9 11:7 
23982.76864476306 1:0.83333333 2:0.28571429 3:0.35223833 4:0.8 5:0.73752524 6:0.7002997 7:0.66666667 8:1 9:11 10:9 11:7 
100000 1:0.83333333 2:0.28571429 3:0.35223833 4:0.8 5:0.73752524 6:0.7002997 7:0.66666667 8:1 9:12 10:16 11:7 
100000 1:0.83333333 2:0.28571429 3:0.35223833 4:0.8 5:0.73752524 6:0.7002997 7:0.66666667 8:1 9:13 10:15 11:7 
6646.454226394223 1:0.83333333 2:0.28571429 3:0.35223833 4:0.8 5:0.73752524 6:0.7002997 7:0.66666667 8:1 9:14 10:13 11:7 
100000 1:0.83333333 2:0.28571429 3:0.35223833 4:0.8 5:0.73752524 6:0.7002997 7:0.66666667 8:1 9:14 10:14 11:7 
6661.182499248719 1:0.83333333 2:0.28571429 3:0.35223833 4:0.8 5:0.73752524 6:0.7002997 7:0.66666667 8:1 9:16 10:7 11:7 
100000 1:0.83333333 2:0.28571429 3:0.35223833 4:0.8 5:0.73752524 6:0.7002997 7:0.66666667 8:1 9:16 10:12 11:7 
77019.65292263552 1:0.83333333 2:0.28571429 3:0.35223833 4:0.8 5:0.73752524 6:0.7002997 7:0.66666667 8:1 9:9 10:15 11:8 
57355.30692393917 1:0.83333333 2:0.28571429 3:0.35223833 4:0.8 5:0.73752524 6:0.7002997 7:0.66666667 8:1 9:11 10:8 11:8 
100000 1:0.83333333 2:0.28571429 3:0.35223833 4:0.8 5:0.73752524 6:0.7002997 7:0.66666667 8:1 9:11 10:13 11:8 
57745.93108224283 1:0.83333333 2:0.28571429 3:0.35223833 4:0.8 5:0.73752524 6:0.7002997 7:0.66666667 8:1 9:12 10:12 11:8 
68185.0188597575 1:0.83333333 2:0.28571429 3:0.35223833 4:0.8 5:0.73752524 6:0.7002997 7:0.66666667 8:1 9:14 10:7 11:8 
63272.75987785967 1:0.83333333 2:0.28571429 3:0.35223833 4:0.8 5:0.73752524 6:0.7002997 7:0.66666667 8:1 9:15 10:10 11:8 
11286.63993828392 1:0.83333333 2:0.28571429 3:0.35223833 4:0.8 5:0.73752524 6:0.7002997 7:0.66666667 8:1 9:16 10:10 11:8 
15808.96704181693 1:0.83333333 2:0.28571429 3:0.35223833 4:0.8 5:0.73752524 6:0.7002997 7:0.66666667 8:1 9:9 10:16 11:9 
100000 1:0.83333333 2:0.28571429 3:0.35223833 4:0.8 5:0.73752524 6:0.7002997 7:0.66666667 8:1 9:10 10:14 11:9 
100000 1:0.83333333 2:0.28571429 3:0.35223833 4:0.8 5:0.73752524 6:0.7002997 7:0.66666667 8:1 9:10 10:15 11:9 
100000 1:0.83333333 2:0.28571429 3:0.35223833 4:0.8 5:0.73752524 6:0.7002997 7:0.66666667 8:1 9:10 10:16 11:9 
100000 1:0.83333333 2:0.28571429 3:0.35223833 4:0.8 5:0.73752524 6:0.7002997 7:0.66666667 8:1 9:11 10:13 11:9 
100000 1:0.83333333 2:0.28571429 3:0.35223833 4:0.8 5:0.73752524 6:0.7002997 7:0.66666667 8:1 9:11 10:14 11:9 
100000 1:0.83333333 2:0.28571429 3:0.35223833 4:0.8 5:0.73752524 6:0.7002997 7:0.66666667 8:1 9:12 10:14 11:9 
100000 1:0.83333333 2:0.28571429 3:0.35223833 4:0.8 5:0.73752524 6:0.7002997 7:0.66666667 8:1 9:14 10:11 11:9 
100000 1:0.83333333 2:0.28571429 3:0.35223833 4:0.8 5:0.73752524 6:0.7002997 7:0.66666667 8:1 9:15 10:10 11:9 
100000 1:0.83333333 2:0.28571429 3:0.35223833 4:0.8 5:0.73752524 6:0.7002997 7:0.66666667 8:1 9:16 10:10 11:9 
100000 1:0.83333333 2:0.28571429 3:0.35223833 4:0.8 5:0.73752524 6:0.7002997 7:0.66666667 8:1 9:11 10:13 11:10 
100000 1:0.83333333 2:0.28571429 3:0.35223833 4:0.8 5:0.73752524 6:0.7002997 7:0.66666667 8:1 9:11 10:14 11:10 
100000 1:0.83333333 2:0.28571429 3:0.35223833 4:0.8 5:0.73752524 6:0.7002997 7:0.66666667 8:1 9:13 10:12 11:10 
100000 1:0.83333333 2:0.28571429 3:0.35223833 4:0.8 5:0.73752524 6:0.7002997 7:0.66666667 8:1 9:15 10:10 11:10 
70677.65379322815 1:0.83333333 2:0.28571429 3:0.35223833 4:0.8 5:0.73752524 6:0.7002997 7:0.66666667 8:1 9:11 10:14 11:11 
34162.5174529315 1:0.83333333 2:0.28571429 3:0.35223833 4:0.8 5:0.73752524 6:0.7002997 7:0.66666667 8:1 9:11 10:15 11:11 
100000 1:0.83333333 2:0.28571429 3:0.35223833 4:0.8 5:0.73752524 6:0.7002997 7:0.66666667 8:1 9:12 10:14 11:11 
100000 1:0.83333333 2:0.28571429 3:0.35223833 4:0.8 5:0.73752524 6:0.7002997 7:0.66666667 8:1 9:12 10:15 11:11 
100000 1:0.83333333 2:0.28571429 3:0.35223833 4:0.8 5:0.73752524 6:0.7002997 7:0.66666667 8:1 9:13 10:13 11:11 
100000 1:0.83333333 2:0.28571429 3:0.35223833 4:0.8 5:0.73752524 6:0.7002997 7:0.66666667 8:1 9:13 10:15 11:11 
100000 1:0.83333333 2:0.28571429 3:0.35223833 4:0.8 5:0.73752524 6:0.7002997 7:0.66666667 8:1 9:14 10:13 11:11 
100000 1:0.83333333 2:0.28571429 3:0.35223833 4:0.8 5:0.73752524 6:0.7002997 7:0.66666667 8:1 9:16 10:10 11:11 
67296.50382348837 1:0.83333333 2:0.28571429 3:0.35223833 4:0.8 5:0.73752524 6:0.7002997 7:0.66666667 8:1 9:10 10:12 11:12 
100000 1:0.83333333 2:0.28571429 3:0.35223833 4:0.8 5:0.73752524 6:0.7002997 7:0.66666667 8:1 9:10 10:13 11:12 
100000 1:0.83333333 2:0.28571429 3:0.35223833 4:0.8 5:0.73752524 6:0.7002997 7:0.66666667 8:1 9:10 10:14 11:12 
100000 1:0.83333333 2:0.28571429 3:0.35223833 4:0.8 5:0.73752524 6:0.7002997 7:0.66666667 8:1 9:10 10:15 11:12 
100000 1:0.83333333 2:0.28571429 3:0.35223833 4:0.8 5:0.73752524 6:0.7002997 7:0.66666667 8:1 9:10 10:16 11:12 
100000 1:0.83333333 2:0.28571429 3:0.35223833 4:0.8 5:0.73752524 6:0.7002997 7:0.66666667 8:1 9:11 10:11 11:12 
100000 1:0.83333333 2:0.28571429 3:0.35223833 4:0.8 5:0.73752524 6:0.7002997 7:0.66666667 8:1 9:11 10:12 11:12 
100000 1:0.83333333 2:0.28571429 3:0.35223833 4:0.8 5:0.73752524 6:0.7002997 7:0.66666667 8:1 9:11 10:13 11:12 
100000 1:0.83333333 2:0.28571429 3:0.35223833 4:0.8 5:0.73752524 6:0.7002997 7:0.66666667 8:1 9:11 10:14 11:12 
100000 1:0.83333333 2:0.28571429 3:0.35223833 4:0.8 5:0.73752524 6:0.7002997 7:0.66666667 8:1 9:11 10:15 11:12 
100000 1:0.83333333 2:0.28571429 3:0.35223833 4:0.8 5:0.73752524 6:0.7002997 7:0.66666667 8:1 9:11 10:16 11:12 
100000 1:0.83333333 2:0.28571429 3:0.35223833 4:0.8 5:0.73752524 6:0.7002997 7:0.66666667 8:1 9:12 10:11 11:12 
100000 1:0.83333333 2:0.28571429 3:0.35223833 4:0.8 5:0.73752524 6:0.7002997 7:0.66666667 8:1 9:12 10:13 11:12 
100000 1:0.83333333 2:0.28571429 3:0.35223833 4:0.8 5:0.73752524 6:0.7002997 7:0.66666667 8:1 9:12 10:14 11:12 
100000 1:0.83333333 2:0.28571429 3:0.35223833 4:0.8 5:0.73752524 6:0.7002997 7:0.66666667 8:1 9:12 10:15 11:12 
100000 1:0.83333333 2:0.28571429 3:0.35223833 4:0.8 5:0.73752524 6:0.7002997 7:0.66666667 8:1 9:12 10:16 11:12 
100000 1:0.83333333 2:0.28571429 3:0.35223833 4:0.8 5:0.73752524 6:0.7002997 7:0.66666667 8:1 9:13 10:12 11:12 
100000 1:0.83333333 2:0.28571429 3:0.35223833 4:0.8 5:0.73752524 6:0.7002997 7:0.66666667 8:1 9:13 10:13 11:12 
80277.83955254023 1:0.83333333 2:0.28571429 3:0.35223833 4:0.8 5:0.73752524 6:0.7002997 7:0.66666667 8:1 9:14 10:9 11:12 
100000 1:0.83333333 2:0.28571429 3:0.35223833 4:0.8 5:0.73752524 6:0.7002997 7:0.66666667 8:1 9:14 10:10 11:12 
100000 1:0.83333333 2:0.28571429 3:0.35223833 4:0.8 5:0.73752524 6:0.7002997 7:0.66666667 8:1 9:14 10:11 11:12 
100000 1:0.83333333 2:0.28571429 3:0.35223833 4:0.8 5:0.73752524 6:0.7002997 7:0.66666667 8:1 9:15 10:8 11:12 
81222.96536443732 1:0.83333333 2:0.28571429 3:0.35223833 4:0.8 5:0.73752524 6:0.7002997 7:0.66666667 8:1 9:16 10:7 11:12 
100000 1:0.83333333 2:0.28571429 3:0.35223833 4:0.8 5:0.73752524 6:0.7002997 7:0.66666667 8:1 9:16 10:8 11:12 
100000 1:0.83333333 2:0.28571429 3:0.35223833 4:0.8 5:0.73752524 6:0.7002997 7:0.66666667 8:1 9:7 10:15 11:13 
100000 1:0.83333333 2:0.28571429 3:0.35223833 4:0.8 5:0.73752524 6:0.7002997 7:0.66666667 8:1 9:9 10:11 11:13 
100000 1:0.83333333 2:0.28571429 3:0.35223833 4:0.8 5:0.73752524 6:0.7002997 7:0.66666667 8:1 9:10 10:11 11:13 
100000 1:0.83333333 2:0.28571429 3:0.35223833 4:0.8 5:0.73752524 6:0.7002997 7:0.66666667 8:1 9:11 10:9 11:13 
100000 1:0.83333333 2:0.28571429 3:0.35223833 4:0.8 5:0.73752524 6:0.7002997 7:0.66666667 8:1 9:11 10:10 11:13 
100000 1:0.83333333 2:0.28571429 3:0.35223833 4:0.8 5:0.73752524 6:0.7002997 7:0.66666667 8:1 9:12 10:9 11:13 
100000 1:0.83333333 2:0.28571429 3:0.35223833 4:0.8 5:0.73752524 6:0.7002997 7:0.66666667 8:1 9:13 10:8 11:13 
100000 1:0.83333333 2:0.28571429 3:0.35223833 4:0.8 5:0.73752524 6:0.7002997 7:0.66666667 8:1 9:14 10:8 11:13 
100000 1:0.83333333 2:0.28571429 3:0.35223833 4:0.8 5:0.73752524 6:0.7002997 7:0.66666667 8:1 9:7 10:14 11:14 
100000 1:0.83333333 2:0.28571429 3:0.35223833 4:0.8 5:0.73752524 6:0.7002997 7:0.66666667 8:1 9:8 10:11 11:14 
100000 1:0.83333333 2:0.28571429 3:0.35223833 4:0.8 5:0.73752524 6:0.7002997 7:0.66666667 8:1 9:8 10:12 11:14 
100000 1:0.83333333 2:0.28571429 3:0.35223833 4:0.8 5:0.73752524 6:0.7002997 7:0.66666667 8:1 9:9 10:9 11:14 
100000 1:0.83333333 2:0.28571429 3:0.35223833 4:0.8 5:0.73752524 6:0.7002997 7:0.66666667 8:1 9:9 10:11 11:14 
100000 1:0.83333333 2:0.28571429 3:0.35223833 4:0.8 5:0.73752524 6:0.7002997 7:0.66666667 8:1 9:11 10:8 11:14 
100000 1:0.83333333 2:0.28571429 3:0.35223833 4:0.8 5:0.73752524 6:0.7002997 7:0.66666667 8:1 9:11 10:9 11:14 
100000 1:0.83333333 2:0.28571429 3:0.35223833 4:0.8 5:0.73752524 6:0.7002997 7:0.66666667 8:1 9:11 10:10 11:14 
100000 1:0.83333333 2:0.28571429 3:0.35223833 4:0.8 5:0.73752524 6:0.7002997 7:0.66666667 8:1 9:12 10:7 11:14 
100000 1:0.83333333 2:0.28571429 3:0.35223833 4:0.8 5:0.73752524 6:0.7002997 7:0.66666667 8:1 9:12 10:8 11:14 
100000 1:0.83333333 2:0.28571429 3:0.35223833 4:0.8 5:0.73752524 6:0.7002997 7:0.66666667 8:1 9:12 10:9 11:14 
100000 1:0.83333333 2:0.28571429 3:0.35223833 4:0.8 5:0.73752524 6:0.7002997 7:0.66666667 8:1 9:12 10:10 11:14 
100000 1:0.83333333 2:0.28571429 3:0.35223833 4:0.8 5:0.73752524 6:0.7002997 7:0.66666667 8:1 9:13 10:9 11:14 
18676.60163257312 1:0.83333333 2:0.28571429 3:0.35223833 4:0.8 5:0.73752524 6:0.7002997 7:0.66666667 8:1 9:7 10:12 11:15 
100000 1:0.83333333 2:0.28571429 3:0.35223833 4:0.8 5:0.73752524 6:0.7002997 7:0.66666667 8:1 9:7 10:13 11:15 
50057.69994343248 1:0.83333333 2:0.28571429 3:0.35223833 4:0.8 5:0.73752524 6:0.7002997 7:0.66666667 8:1 9:8 10:9 11:15 
100000 1:0.83333333 2:0.28571429 3:0.35223833 4:0.8 5:0.73752524 6:0.7002997 7:0.66666667 8:1 9:8 10:11 11:15 
100000 1:0.83333333 2:0.28571429 3:0.35223833 4:0.8 5:0.73752524 6:0.7002997 7:0.66666667 8:1 9:9 10:8 11:15 
100000 1:0.83333333 2:0.28571429 3:0.35223833 4:0.8 5:0.73752524 6:0.7002997 7:0.66666667 8:1 9:11 10:7 11:15 
100000 1:0.83333333 2:0.28571429 3:0.35223833 4:0.8 5:0.73752524 6:0.7002997 7:0.66666667 8:1 9:11 10:8 11:15 
52967.49232874047 1:0.83333333 2:0.28571429 3:0.35223833 4:0.8 5:0.73752524 6:0.7002997 7:0.66666667 8:1 9:7 10:7 11:16 
22601.77872761988 1:0.83333333 2:0.28571429 3:0.35223833 4:0.8 5:0.73752524 6:0.7002997 7:0.66666667 8:1 9:7 10:11 11:16 
100000 1:0.83333333 2:0.28571429 3:0.35223833 4:0.8 5:0.73752524 6:0.7002997 7:0.66666667 8:1 9:7 10:12 11:16 
57958.87445176527 1:0.83333333 2:0.28571429 3:0.35223833 4:0.8 5:0.73752524 6:0.7002997 7:0.66666667 8:1 9:8 10:8 11:16 
100000 1:0.83333333 2:0.28571429 3:0.35223833 4:0.8 5:0.73752524 6:0.7002997 7:0.66666667 8:1 9:8 10:11 11:16 
43374.57294964923 1:1 2:0.14285714 3:0.70922431 4:1 5:1 6:1 7:0.66666667 8:1 9:7 10:9 11:7 
100000 1:1 2:0.14285714 3:0.70922431 4:1 5:1 6:1 7:0.66666667 8:1 9:8 10:8 11:7 
100000 1:1 2:0.14285714 3:0.70922431 4:1 5:1 6:1 7:0.66666667 8:1 9:9 10:8 11:7 
100000 1:1 2:0.14285714 3:0.70922431 4:1 5:1 6:1 7:0.66666667 8:1 9:9 10:9 11:7 
100000 1:1 2:0.14285714 3:0.70922431 4:1 5:1 6:1 7:0.66666667 8:1 9:10 10:8 11:7 
43782.77846777554 1:1 2:0.14285714 3:0.70922431 4:1 5:1 6:1 7:0.66666667 8:1 9:10 10:10 11:7 
40981.76274592382 1:1 2:0.14285714 3:0.70922431 4:1 5:1 6:1 7:0.66666667 8:1 9:10 10:15 11:7 
100000 1:1 2:0.14285714 3:0.70922431 4:1 5:1 6:1 7:0.66666667 8:1 9:10 10:16 11:7 
100000 1:1 2:0.14285714 3:0.70922431 4:1 5:1 6:1 7:0.66666667 8:1 9:11 10:9 11:7 
100000 1:1 2:0.14285714 3:0.70922431 4:1 5:1 6:1 7:0.66666667 8:1 9:11 10:14 11:7 
100000 1:1 2:0.14285714 3:0.70922431 4:1 5:1 6:1 7:0.66666667 8:1 9:12 10:9 11:7 
100000 1:1 2:0.14285714 3:0.70922431 4:1 5:1 6:1 7:0.66666667 8:1 9:12 10:13 11:7 
21044.87119852816 1:1 2:0.14285714 3:0.70922431 4:1 5:1 6:1 7:0.66666667 8:1 9:13 10:9 11:7 
56771.19003713367 1:1 2:0.14285714 3:0.70922431 4:1 5:1 6:1 7:0.66666667 8:1 9:13 10:10 11:7 
100000 1:1 2:0.14285714 3:0.70922431 4:1 5:1 6:1 7:0.66666667 8:1 9:13 10:12 11:7 
100000 1:1 2:0.14285714 3:0.70922431 4:1 5:1 6:1 7:0.66666667 8:1 9:14 10:10 11:7 
100000 1:1 2:0.14285714 3:0.70922431 4:1 5:1 6:1 7:0.66666667 8:1 9:14 10:12 11:7 
100000 1:1 2:0.14285714 3:0.70922431 4:1 5:1 6:1 7:0.66666667 8:1 9:15 10:9 11:7 
100000 1:1 2:0.14285714 3:0.70922431 4:1 5:1 6:1 7:0.66666667 8:1 9:16 10:8 11:7 
100000 1:1 2:0.14285714 3:0.70922431 4:1 5:1 6:1 7:0.66666667 8:1 9:16 10:9 11:7 
25750.91509023842 1:1 2:0.14285714 3:0.70922431 4:1 5:1 6:1 7:0.66666667 8:1 9:7 10:7 11:8 
18609.74775299093 1:1 2:0.14285714 3:0.70922431 4:1 5:1 6:1 7:0.66666667 8:1 9:7 10:8 11:8 
100000 1:1 2:0.14285714 3:0.70922431 4:1 5:1 6:1 7:0.66666667 8:1 9:8 10:8 11:8 
100000 1:1 2:0.14285714 3:0.70922431 4:1 5:1 6:1 7:0.66666667 8:1 9:10 10:13 11:8 
43227.9564078531 1:1 2:0.14285714 3:0.70922431 4:1 5:1 6:1 7:0.66666667 8:1 9:11 10:7 11:8 
100000 1:1 2:0.14285714 3:0.70922431 4:1 5:1 6:1 7:0.66666667 8:1 9:11 10:8 11:8 
100000 1:1 2:0.14285714 3:0.70922431 4:1 5:1 6:1 7:0.66666667 8:1 9:11 10:9 11:8 
100000 1:1 2:0.14285714 3:0.70922431 4:1 5:1 6:1 7:0.66666667 8:1 9:11 10:12 11:8 
100000 1:1 2:0.14285714 3:0.70922431 4:1 5:1 6:1 7:0.66666667 8:1 9:12 10:8 11:8 
100000 1:1 2:0.14285714 3:0.70922431 4:1 5:1 6:1 7:0.66666667 8:1 9:12 10:11 11:8 
17884.71824626941 1:1 2:0.14285714 3:0.70922431 4:1 5:1 6:1 7:0.66666667 8:1 9:13 10:7 11:8 
100000 1:1 2:0.14285714 3:0.70922431 4:1 5:1 6:1 7:0.66666667 8:1 9:13 10:11 11:8 
100000 1:1 2:0.14285714 3:0.70922431 4:1 5:1 6:1 7:0.66666667 8:1 9:15 10:7 11:8 
74948.74092397223 1:1 2:0.14285714 3:0.70922431 4:1 5:1 6:1 7:0.66666667 8:1 9:15 10:8 11:8 
100000 1:1 2:0.14285714 3:0.70922431 4:1 5:1 6:1 7:0.66666667 8:1 9:15 10:9 11:8 
100000 1:1 2:0.14285714 3:0.70922431 4:1 5:1 6:1 7:0.66666667 8:1 9:15 10:10 11:8 
100000 1:1 2:0.14285714 3:0.70922431 4:1 5:1 6:1 7:0.66666667 8:1 9:16 10:8 11:8 
100000 1:1 2:0.14285714 3:0.70922431 4:1 5:1 6:1 7:0.66666667 8:1 9:9 10:14 11:9 
100000 1:1 2:0.14285714 3:0.70922431 4:1 5:1 6:1 7:0.66666667 8:1 9:11 10:12 11:9 
36205.25583685318 1:1 2:0.14285714 3:0.70922431 4:1 5:1 6:1 7:0.66666667 8:1 9:12 10:7 11:9 
100000 1:1 2:0.14285714 3:0.70922431 4:1 5:1 6:1 7:0.66666667 8:1 9:12 10:11 11:9 
100000 1:1 2:0.14285714 3:0.70922431 4:1 5:1 6:1 7:0.66666667 8:1 9:13 10:7 11:9 
100000 1:1 2:0.14285714 3:0.70922431 4:1 5:1 6:1 7:0.66666667 8:1 9:13 10:11 11:9 
100000 1:1 2:0.14285714 3:0.70922431 4:1 5:1 6:1 7:0.66666667 8:1 9:14 10:10 11:9 
100000 1:1 2:0.14285714 3:0.70922431 4:1 5:1 6:1 7:0.66666667 8:1 9:15 10:10 11:9 
100000 1:1 2:0.14285714 3:0.70922431 4:1 5:1 6:1 7:0.66666667 8:1 9:16 10:7 11:9 
100000 1:1 2:0.14285714 3:0.70922431 4:1 5:1 6:1 7:0.66666667 8:1 9:8 10:16 11:10 
65034.77784271278 1:1 2:0.14285714 3:0.70922431 4:1 5:1 6:1 7:0.66666667 8:1 9:9 10:13 11:10 
63569.94789918929 1:1 2:0.14285714 3:0.70922431 4:1 5:1 6:1 7:0.66666667 8:1 9:13 10:11 11:10 
100000 1:1 2:0.14285714 3:0.70922431 4:1 5:1 6:1 7:0.66666667 8:1 9:15 10:10 11:10 
100000 1:1 2:0.14285714 3:0.70922431 4:1 5:1 6:1 7:0.66666667 8:1 9:16 10:9 11:10 
100000 1:1 2:0.14285714 3:0.70922431 4:1 5:1 6:1 7:0.66666667 8:1 9:16 10:10 11:10 
100000 1:1 2:0.14285714 3:0.70922431 4:1 5:1 6:1 7:0.66666667 8:1 9:8 10:14 11:11 
100000 1:1 2:0.14285714 3:0.70922431 4:1 5:1 6:1 7:0.66666667 8:1 9:10 10:12 11:11 
100000 1:1 2:0.14285714 3:0.70922431 4:1 5:1 6:1 7:0.66666667 8:1 9:14 10:11 11:11 
35885.22023525517 1:1 2:0.14285714 3:0.70922431 4:1 5:1 6:1 7:0.66666667 8:1 9:15 10:7 11:11 
100000 1:1 2:0.14285714 3:0.70922431 4:1 5:1 6:1 7:0.66666667 8:1 9:15 10:10 11:11 
100000 1:1 2:0.14285714 3:0.70922431 4:1 5:1 6:1 7:0.66666667 8:1 9:15 10:11 11:11 
100000 1:1 2:0.14285714 3:0.70922431 4:1 5:1 6:1 7:0.66666667 8:1 9:16 10:7 11:11 
100000 1:1 2:0.14285714 3:0.70922431 4:1 5:1 6:1 7:0.66666667 8:1 9:16 10:8 11:11 
53453.19751652643 1:1 2:0.14285714 3:0.70922431 4:1 5:1 6:1 7:0.66666667 8:1 9:7 10:14 11:12 
100000 1:1 2:0.14285714 3:0.70922431 4:1 5:1 6:1 7:0.66666667 8:1 9:7 10:15 11:12 
19292.27622881811 1:1 2:0.14285714 3:0.70922431 4:1 5:1 6:1 7:0.66666667 8:1 9:7 10:16 11:12 
100000 1:1 2:0.14285714 3:0.70922431 4:1 5:1 6:1 7:0.66666667 8:1 9:8 10:13 11:12 
100000 1:1 2:0.14285714 3:0.70922431 4:1 5:1 6:1 7:0.66666667 8:1 9:8 10:14 11:12 
538.5827629726156 1:1 2:0.14285714 3:0.70922431 4:1 5:1 6:1 7:0.66666667 8:1 9:9 10:11 11:12 
100000 1:1 2:0.14285714 3:0.70922431 4:1 5:1 6:1 7:0.66666667 8:1 9:9 10:12 11:12 
100000 1:1 2:0.14285714 3:0.70922431 4:1 5:1 6:1 7:0.66666667 8:1 9:10 10:11 11:12 
100000 1:1 2:0.14285714 3:0.70922431 4:1 5:1 6:1 7:0.66666667 8:1 9:11 10:11 11:12 
100000 1:1 2:0.14285714 3:0.70922431 4:1 5:1 6:1 7:0.66666667 8:1 9:12 10:11 11:12 
100000 1:1 2:0.14285714 3:0.70922431 4:1 5:1 6:1 7:0.66666667 8:1 9:13 10:11 11:12 
100000 1:1 2:0.14285714 3:0.70922431 4:1 5:1 6:1 7:0.66666667 8:1 9:14 10:7 11:12 
100000 1:1 2:0.14285714 3:0.70922431 4:1 5:1 6:1 7:0.66666667 8:1 9:14 10:8 11:12 
100000 1:1 2:0.14285714 3:0.70922431 4:1 5:1 6:1 7:0.66666667 8:1 9:14 10:11 11:12 
100000 1:1 2:0.14285714 3:0.70922431 4:1 5:1 6:1 7:0.66666667 8:1 9:15 10:7 11:12 
100000 1:1 2:0.14285714 3:0.70922431 4:1 5:1 6:1 7:0.66666667 8:1 9:15 10:9 11:12 
100000 1:1 2:0.14285714 3:0.70922431 4:1 5:1 6:1 7:0.66666667 8:1 9:16 10:8 11:12 
100000 1:1 2:0.14285714 3:0.70922431 4:1 5:1 6:1 7:0.66666667 8:1 9:8 10:11 11:13 
100000 1:1 2:0.14285714 3:0.70922431 4:1 5:1 6:1 7:0.66666667 8:1 9:9 10:11 11:13 
100000 1:1 2:0.14285714 3:0.70922431 4:1 5:1 6:1 7:0.66666667 8:1 9:11 10:9 11:13 
66600.93182542792 1:1 2:0.14285714 3:0.70922431 4:1 5:1 6:1 7:0.66666667 8:1 9:12 10:7 11:13 
100000 1:1 2:0.14285714 3:0.70922431 4:1 5:1 6:1 7:0.66666667 8:1 9:12 10:8 11:13 
100000 1:1 2:0.14285714 3:0.70922431 4:1 5:1 6:1 7:0.66666667 8:1 9:12 10:9 11:13 
100000 1:1 2:0.14285714 3:0.70922431 4:1 5:1 6:1 7:0.66666667 8:1 9:13 10:7 11:13 
100000 1:1 2:0.14285714 3:0.70922431 4:1 5:1 6:1 7:0.66666667 8:1 9:13 10:10 11:13 
100000 1:1 2:0.14285714 3:0.70922431 4:1 5:1 6:1 7:0.66666667 8:1 9:16 10:10 11:13 
29339.18917910387 1:1 2:0.14285714 3:0.70922431 4:1 5:1 6:1 7:0.66666667 8:1 9:7 10:8 11:14 
100000 1:1 2:0.14285714 3:0.70922431 4:1 5:1 6:1 7:0.66666667 8:1 9:8 10:9 11:14 
100000 1:1 2:0.14285714 3:0.70922431 4:1 5:1 6:1 7:0.66666667 8:1 9:9 10:8 11:14 
100000 1:1 2:0.14285714 3:0.70922431 4:1 5:1 6:1 7:0.66666667 8:1 9:9 10:9 11:14 
100000 1:1 2:0.14285714 3:0.70922431 4:1 5:1 6:1 7:0.66666667 8:1 9:7 10:7 11:15 
100000 1:1 2:0.14285714 3:0.70922431 4:1 5:1 6:1 7:0.66666667 8:1 9:7 10:11 11:15 
99873.2909206698 1:1 2:0.14285714 3:0.70922431 4:1 5:1 6:1 7:0.66666667 8:1 9:9 10:7 11:15 
100000 1:1 2:0.14285714 3:0.70922431 4:1 5:1 6:1 7:0.66666667 8:1 9:8 10:7 11:16 
100000 1:1 2:0.14285714 3:0.70922431 4:1 5:1 6:1 7:0.66666667 8:1 9:11 10:7 11:16 
-100000 1:0.5 2:0.71428571 3:0.26402714 4:0.6 5:0.58032881 6:0.6001998 7:1 8:0.75 9:7 10:16 11:7 
-100000 1:0.5 2:0.71428571 3:0.26402714 4:0.6 5:0.58032881 6:0.6001998 7:1 8:0.75 9:9 10:10 11:7 
-100000 1:0.5 2:0.71428571 3:0.26402714 4:0.6 5:0.58032881 6:0.6001998 7:1 8:0.75 9:10 10:9 11:7 
-100000 1:0.5 2:0.71428571 3:0.26402714 4:0.6 5:0.58032881 6:0.6001998 7:1 8:0.75 9:10 10:15 11:7 
-100000 1:0.5 2:0.71428571 3:0.26402714 4:0.6 5:0.58032881 6:0.6001998 7:1 8:0.75 9:11 10:8 11:7 
-45666.33800383408 1:0.5 2:0.71428571 3:0.26402714 4:0.6 5:0.58032881 6:0.6001998 7:1 8:0.75 9:11 10:14 11:7 
-52226.03300573667 1:0.5 2:0.71428571 3:0.26402714 4:0.6 5:0.58032881 6:0.6001998 7:1 8:0.75 9:12 10:7 11:7 
-100000 1:0.5 2:0.71428571 3:0.26402714 4:0.6 5:0.58032881 6:0.6001998 7:1 8:0.75 9:12 10:9 11:7 
-100000 1:0.5 2:0.71428571 3:0.26402714 4:0.6 5:0.58032881 6:0.6001998 7:1 8:0.75 9:12 10:10 11:7 
-100000 1:0.5 2:0.71428571 3:0.26402714 4:0.6 5:0.58032881 6:0.6001998 7:1 8:0.75 9:13 10:10 11:7 
-100000 1:0.5 2:0.71428571 3:0.26402714 4:0.6 5:0.58032881 6:0.6001998 7:1 8:0.75 9:10 10:8 11:8 
-100000 1:0.5 2:0.71428571 3:0.26402714 4:0.6 5:0.58032881 6:0.6001998 7:1 8:0.75 9:10 10:9 11:8 
-100000 1:0.5 2:0.71428571 3:0.26402714 4:0.6 5:0.58032881 6:0.6001998 7:1 8:0.75 9:10 10:14 11:8 
-100000 1:0.5 2:0.71428571 3:0.26402714 4:0.6 5:0.58032881 6:0.6001998 7:1 8:0.75 9:11 10:8 11:8 
-100000 1:0.5 2:0.71428571 3:0.26402714 4:0.6 5:0.58032881 6:0.6001998 7:1 8:0.75 9:12 10:9 11:8 
-100000 1:0.5 2:0.71428571 3:0.26402714 4:0.6 5:0.58032881 6:0.6001998 7:1 8:0.75 9:12 10:11 11:8 
-76272.41065836749 1:0.5 2:0.71428571 3:0.26402714 4:0.6 5:0.58032881 6:0.6001998 7:1 8:0.75 9:13 10:9 11:8 
-100000 1:0.5 2:0.71428571 3:0.26402714 4:0.6 5:0.58032881 6:0.6001998 7:1 8:0.75 9:10 10:7 11:9 
-100000 1:0.5 2:0.71428571 3:0.26402714 4:0.6 5:0.58032881 6:0.6001998 7:1 8:0.75 9:10 10:8 11:9 
-100000 1:0.5 2:0.71428571 3:0.26402714 4:0.6 5:0.58032881 6:0.6001998 7:1 8:0.75 9:10 10:13 11:9 
-100000 1:0.5 2:0.71428571 3:0.26402714 4:0.6 5:0.58032881 6:0.6001998 7:1 8:0.75 9:11 10:7 11:9 
-100000 1:0.5 2:0.71428571 3:0.26402714 4:0.6 5:0.58032881 6:0.6001998 7:1 8:0.75 9:11 10:8 11:9 
-100000 1:0.5 2:0.71428571 3:0.26402714 4:0.6 5:0.58032881 6:0.6001998 7:1 8:0.75 9:12 10:8 11:9 
-100000 1:0.5 2:0.71428571 3:0.26402714 4:0.6 5:0.58032881 6:0.6001998 7:1 8:0.75 9:13 10:8 11:9 
-100000 1:0.5 2:0.71428571 3:0.26402714 4:0.6 5:0.58032881 6:0.6001998 7:1 8:0.75 9:7 10:13 11:10 
-100000 1:0.5 2:0.71428571 3:0.26402714 4:0.6 5:0.58032881 6:0.6001998 7:1 8:0.75 9:7 10:14 11:10 
-100000 1:0.5 2:0.71428571 3:0.26402714 4:0.6 5:0.58032881 6:0.6001998 7:1 8:0.75 9:8 10:7 11:10 
-100000 1:0.5 2:0.71428571 3:0.26402714 4:0.6 5:0.58032881 6:0.6001998 7:1 8:0.75 9:9 10:16 11:10 
-100000 1:0.5 2:0.71428571 3:0.26402714 4:0.6 5:0.58032881 6:0.6001998 7:1 8:0.75 9:10 10:13 11:10 
-100000 1:0.5 2:0.71428571 3:0.26402714 4:0.6 5:0.58032881 6:0.6001998 7:1 8:0.75 9:11 10:7 11:10 
-100000 1:0.5 2:0.71428571 3:0.26402714 4:0.6 5:0.58032881 6:0.6001998 7:1 8:0.75 9:11 10:11 11:10 
-56996.15907018532 1:0.5 2:0.71428571 3:0.26402714 4:0.6 5:0.58032881 6:0.6001998 7:1 8:0.75 9:12 10:7 11:10 
-100000 1:0.5 2:0.71428571 3:0.26402714 4:0.6 5:0.58032881 6:0.6001998 7:1 8:0.75 9:12 10:9 11:10 
-34894.05641492732 1:0.5 2:0.71428571 3:0.26402714 4:0.6 5:0.58032881 6:0.6001998 7:1 8:0.75 9:12 10:10 11:10 
-100000 1:0.5 2:0.71428571 3:0.26402714 4:0.6 5:0.58032881 6:0.6001998 7:1 8:0.75 9:13 10:8 11:10 
-100000 1:0.5 2:0.71428571 3:0.26402714 4:0.6 5:0.58032881 6:0.6001998 7:1 8:0.75 9:7 10:13 11:11 
-100000 1:0.5 2:0.71428571 3:0.26402714 4:0.6 5:0.58032881 6:0.6001998 7:1 8:0.75 9:9 10:12 11:11 
-100000 1:0.5 2:0.71428571 3:0.26402714 4:0.6 5:0.58032881 6:0.6001998 7:1 8:0.75 9:9 10:14 11:11 
-100000 1:0.5 2:0.71428571 3:0.26402714 4:0.6 5:0.58032881 6:0.6001998 7:1 8:0.75 9:9 10:16 11:11 
-100000 1:0.5 2:0.71428571 3:0.26402714 4:0.6 5:0.58032881 6:0.6001998 7:1 8:0.75 9:10 10:11 11:11 
-100000 1:0.5 2:0.71428571 3:0.26402714 4:0.6 5:0.58032881 6:0.6001998 7:1 8:0.75 9:10 10:12 11:11 
-100000 1:0.5 2:0.71428571 3:0.26402714 4:0.6 5:0.58032881 6:0.6001998 7:1 8:0.75 9:10 10:13 11:11 
-100000 1:0.5 2:0.71428571 3:0.26402714 4:0.6 5:0.58032881 6:0.6001998 7:1 8:0.75 9:11 10:10 11:11 
-100000 1:0.5 2:0.71428571 3:0.26402714 4:0.6 5:0.58032881 6:0.6001998 7:1 8:0.75 9:12 10:8 11:11 
-100000 1:0.5 2:0.71428571 3:0.26402714 4:0.6 5:0.58032881 6:0.6001998 7:1 8:0.75 9:12 10:9 11:11 
-100000 1:0.5 2:0.71428571 3:0.26402714 4:0.6 5:0.58032881 6:0.6001998 7:1 8:0.75 9:7 10:13 11:12 
-100000 1:0.5 2:0.71428571 3:0.26402714 4:0.6 5:0.58032881 6:0.6001998 7:1 8:0.75 9:9 10:14 11:12 
-100000 1:0.5 2:0.71428571 3:0.26402714 4:0.6 5:0.58032881 6:0.6001998 7:1 8:0.75 9:9 10:15 11:12 
-100000 1:0.5 2:0.71428571 3:0.26402714 4:0.6 5:0.58032881 6:0.6001998 7:1 8:0.75 9:10 10:9 11:12 
-100000 1:0.5 2:0.71428571 3:0.26402714 4:0.6 5:0.58032881 6:0.6001998 7:1 8:0.75 9:10 10:10 11:12 
-100000 1:0.5 2:0.71428571 3:0.26402714 4:0.6 5:0.58032881 6:0.6001998 7:1 8:0.75 9:10 10:11 11:12 
-100000 1:0.5 2:0.71428571 3:0.26402714 4:0.6 5:0.58032881 6:0.6001998 7:1 8:0.75 9:11 10:8 11:12 
-100000 1:0.5 2:0.71428571 3:0.26402714 4:0.6 5:0.58032881 6:0.6001998 7:1 8:0.75 9:7 10:12 11:13 
-100000 1:0.5 2:0.71428571 3:0.26402714 4:0.6 5:0.58032881 6:0.6001998 7:1 8:0.75 9:9 10:10 11:13 
-100000 1:0.5 2:0.71428571 3:0.26402714 4:0.6 5:0.58032881 6:0.6001998 7:1 8:0.75 9:9 10:12 11:13 
-100000 1:0.5 2:0.71428571 3:0.26402714 4:0.6 5:0.58032881 6:0.6001998 7:1 8:0.75 9:10 10:8 11:13 
-100000 1:0.5 2:0.71428571 3:0.26402714 4:0.6 5:0.58032881 6:0.6001998 7:1 8:0.75 9:10 10:9 11:13 
-100000 1:0.5 2:0.71428571 3:0.26402714 4:0.6 5:0.58032881 6:0.6001998 7:1 8:0.75 9:11 10:7 11:13 
-100000 1:0.5 2:0.71428571 3:0.26402714 4:0.6 5:0.58032881 6:0.6001998 7:1 8:0.75 9:7 10:8 11:14 
-100000 1:0.5 2:0.71428571 3:0.26402714 4:0.6 5:0.58032881 6:0.6001998 7:1 8:0.75 9:7 10:12 11:14 
-100000 1:0.5 2:0.71428571 3:0.26402714 4:0.6 5:0.58032881 6:0.6001998 7:1 8:0.75 9:8 10:7 11:14 
-100000 1:0.5 2:0.71428571 3:0.26402714 4:0.6 5:0.58032881 6:0.6001998 7:1 8:0.75 9:9 10:8 11:14 
-100000 1:0.5 2:0.71428571 3:0.26402714 4:0.6 5:0.58032881 6:0.6001998 7:1 8:0.75 9:9 10:10 11:14 
-100000 1:0.5 2:0.71428571 3:0.26402714 4:0.6 5:0.58032881 6:0.6001998 7:1 8:0.75 9:9 10:12 11:14 
-100000 1:0.5 2:0.71428571 3:0.26402714 4:0.6 5:0.58032881 6:0.6001998 7:1 8:0.75 9:9 10:14 11:14 
-100000 1:0.5 2:0.71428571 3:0.26402714 4:0.6 5:0.58032881 6:0.6001998 7:1 8:0.75 9:10 10:7 11:14 
-100000 1:0.5 2:0.71428571 3:0.26402714 4:0.6 5:0.58032881 6:0.6001998 7:1 8:0.75 9:7 10:8 11:15 
-100000 1:0.5 2:0.71428571 3:0.26402714 4:0.6 5:0.58032881 6:0.6001998 7:1 8:0.75 9:7 10:11 11:15 
-100000 1:0.5 2:0.71428571 3:0.26402714 4:0.6 5:0.58032881 6:0.6001998 7:1 8:0.75 9:7 10:12 11:15 
-100000 1:0.5 2:0.71428571 3:0.26402714 4:0.6 5:0.58032881 6:0.6001998 7:1 8:0.75 9:7 10:13 11:15 
-83210.03035335797 1:0.5 2:0.71428571 3:0.26402714 4:0.6 5:0.58032881 6:0.6001998 7:1 8:0.75 9:8 10:7 11:15 
-100000 1:0.5 2:0.71428571 3:0.26402714 4:0.6 5:0.58032881 6:0.6001998 7:1 8:0.75 9:9 10:7 11:15 
-100000 1:0.5 2:0.71428571 3:0.26402714 4:0.6 5:0.58032881 6:0.6001998 7:1 8:0.75 9:9 10:8 11:15 
-100000 1:0.5 2:0.71428571 3:0.26402714 4:0.6 5:0.58032881 6:0.6001998 7:1 8:0.75 9:9 10:9 11:15 
-100000 1:0.5 2:0.71428571 3:0.26402714 4:0.6 5:0.58032881 6:0.6001998 7:1 8:0.75 9:9 10:10 11:15 
-100000 1:0.5 2:0.71428571 3:0.26402714 4:0.6 5:0.58032881 6:0.6001998 7:1 8:0.75 9:9 10:11 11:15 
-100000 1:0.5 2:0.71428571 3:0.26402714 4:0.6 5:0.58032881 6:0.6001998 7:1 8:0.75 9:9 10:12 11:15 
-49371.78639331361 1:0.5 2:0.71428571 3:0.26402714 4:0.6 5:0.58032881 6:0.6001998 7:1 8:0.75 9:10 10:7 11:15 
-21663.39322014734 1:0.5 2:0.71428571 3:0.26402714 4:0.6 5:0.58032881 6:0.6001998 7:1 8:0.75 9:7 10:8 11:16 
-100000 1:0.5 2:0.71428571 3:0.26402714 4:0.6 5:0.58032881 6:0.6001998 7:1 8:0.75 9:7 10:11 11:16 
-100000 1:0.5 2:0.71428571 3:0.26402714 4:0.6 5:0.58032881 6:0.6001998 7:1 8:0.75 9:7 10:12 11:16 
-100000 1:0.5 2:0.71428571 3:0.26402714 4:0.6 5:0.58032881 6:0.6001998 7:1 8:0.75 9:8 10:9 11:16 
-100000 1:0.5 2:0.71428571 3:0.26402714 4:0.6 5:0.58032881 6:0.6001998 7:1 8:0.75 9:8 10:10 11:16 
-100000 1:0.5 2:0.71428571 3:0.26402714 4:0.6 5:0.58032881 6:0.6001998 7:1 8:0.75 9:8 10:11 11:16 
-13870.18541652811 1:0.5 2:0.71428571 3:0.26402714 4:0.6 5:0.58032881 6:0.6001998 7:1 8:0.75 9:10 10:12 11:16 
-19701.44278427922 1:0.5 2:1 3:1 4:0.65 5:0.3241996 6:0.5004995 7:1 8:0.75 9:7 10:16 11:7 
-100000 1:0.5 2:1 3:1 4:0.65 5:0.3241996 6:0.5004995 7:1 8:0.75 9:9 10:10 11:7 
-100000 1:0.5 2:1 3:1 4:0.65 5:0.3241996 6:0.5004995 7:1 8:0.75 9:9 10:16 11:7 
-100000 1:0.5 2:1 3:1 4:0.65 5:0.3241996 6:0.5004995 7:1 8:0.75 9:10 10:9 11:7 
-100000 1:0.5 2:1 3:1 4:0.65 5:0.3241996 6:0.5004995 7:1 8:0.75 9:10 10:14 11:7 
-100000 1:0.5 2:1 3:1 4:0.65 5:0.3241996 6:0.5004995 7:1 8:0.75 9:11 10:8 11:7 
-100000 1:0.5 2:1 3:1 4:0.65 5:0.3241996 6:0.5004995 7:1 8:0.75 9:11 10:9 11:7 
-100000 1:0.5 2:1 3:1 4:0.65 5:0.3241996 6:0.5004995 7:1 8:0.75 9:11 10:10 11:7 
-100000 1:0.5 2:1 3:1 4:0.65 5:0.3241996 6:0.5004995 7:1 8:0.75 9:12 10:10 11:7 
-100000 1:0.5 2:1 3:1 4:0.65 5:0.3241996 6:0.5004995 7:1 8:0.75 9:7 10:15 11:8 
-100000 1:0.5 2:1 3:1 4:0.65 5:0.3241996 6:0.5004995 7:1 8:0.75 9:9 10:15 11:8 
-100000 1:0.5 2:1 3:1 4:0.65 5:0.3241996 6:0.5004995 7:1 8:0.75 9:10 10:9 11:8 
-100000 1:0.5 2:1 3:1 4:0.65 5:0.3241996 6:0.5004995 7:1 8:0.75 9:11 10:8 11:8 
-100000 1:0.5 2:1 3:1 4:0.65 5:0.3241996 6:0.5004995 7:1 8:0.75 9:11 10:9 11:8 
-100000 1:0.5 2:1 3:1 4:0.65 5:0.3241996 6:0.5004995 7:1 8:0.75 9:11 10:12 11:8 
-100000 1:0.5 2:1 3:1 4:0.65 5:0.3241996 6:0.5004995 7:1 8:0.75 9:12 10:9 11:8 
-100000 1:0.5 2:1 3:1 4:0.65 5:0.3241996 6:0.5004995 7:1 8:0.75 9:12 10:11 11:8 
-100000 1:0.5 2:1 3:1 4:0.65 5:0.3241996 6:0.5004995 7:1 8:0.75 9:7 10:15 11:9 
-100000 1:0.5 2:1 3:1 4:0.65 5:0.3241996 6:0.5004995 7:1 8:0.75 9:10 10:8 11:9 
-100000 1:0.5 2:1 3:1 4:0.65 5:0.3241996 6:0.5004995 7:1 8:0.75 9:10 10:13 11:9 
-100000 1:0.5 2:1 3:1 4:0.65 5:0.3241996 6:0.5004995 7:1 8:0.75 9:11 10:7 11:9 
-100000 1:0.5 2:1 3:1 4:0.65 5:0.3241996 6:0.5004995 7:1 8:0.75 9:11 10:8 11:9 
-100000 1:0.5 2:1 3:1 4:0.65 5:0.3241996 6:0.5004995 7:1 8:0.75 9:11 10:12 11:9 
-100000 1:0.5 2:1 3:1 4:0.65 5:0.3241996 6:0.5004995 7:1 8:0.75 9:12 10:8 11:9 
-74374.63362420983 1:0.5 2:1 3:1 4:0.65 5:0.3241996 6:0.5004995 7:1 8:0.75 9:12 10:11 11:9 
-41579.187880406 1:0.5 2:1 3:1 4:0.65 5:0.3241996 6:0.5004995 7:1 8:0.75 9:13 10:8 11:9 
-100000 1:0.5 2:1 3:1 4:0.65 5:0.3241996 6:0.5004995 7:1 8:0.75 9:13 10:10 11:9 
-100000 1:0.5 2:1 3:1 4:0.65 5:0.3241996 6:0.5004995 7:1 8:0.75 9:7 10:13 11:10 
-78723.39368977648 1:0.5 2:1 3:1 4:0.65 5:0.3241996 6:0.5004995 7:1 8:0.75 9:7 10:14 11:10 
-44862.69554665245 1:0.5 2:1 3:1 4:0.65 5:0.3241996 6:0.5004995 7:1 8:0.75 9:7 10:16 11:10 
-100000 1:0.5 2:1 3:1 4:0.65 5:0.3241996 6:0.5004995 7:1 8:0.75 9:8 10:7 11:10 
-100000 1:0.5 2:1 3:1 4:0.65 5:0.3241996 6:0.5004995 7:1 8:0.75 9:10 10:13 11:10 
-100000 1:0.5 2:1 3:1 4:0.65 5:0.3241996 6:0.5004995 7:1 8:0.75 9:11 10:7 11:10 
-563.9487463146627 1:0.5 2:1 3:1 4:0.65 5:0.3241996 6:0.5004995 7:1 8:0.75 9:12 10:7 11:10 
-53558.29161251012 1:0.5 2:1 3:1 4:0.65 5:0.3241996 6:0.5004995 7:1 8:0.75 9:13 10:10 11:10 
-100000 1:0.5 2:1 3:1 4:0.65 5:0.3241996 6:0.5004995 7:1 8:0.75 9:14 10:9 11:10 
-100000 1:0.5 2:1 3:1 4:0.65 5:0.3241996 6:0.5004995 7:1 8:0.75 9:7 10:12 11:11 
-100000 1:0.5 2:1 3:1 4:0.65 5:0.3241996 6:0.5004995 7:1 8:0.75 9:9 10:10 11:11 
-100000 1:0.5 2:1 3:1 4:0.65 5:0.3241996 6:0.5004995 7:1 8:0.75 9:9 10:11 11:11 
-100000 1:0.5 2:1 3:1 4:0.65 5:0.3241996 6:0.5004995 7:1 8:0.75 9:10 10:9 11:11 
-100000 1:0.5 2:1 3:1 4:0.65 5:0.3241996 6:0.5004995 7:1 8:0.75 9:10 10:10 11:11 
-100000 1:0.5 2:1 3:1 4:0.65 5:0.3241996 6:0.5004995 7:1 8:0.75 9:10 10:11 11:11 
-100000 1:0.5 2:1 3:1 4:0.65 5:0.3241996 6:0.5004995 7:1 8:0.75 9:10 10:13 11:11 
-100000 1:0.5 2:1 3:1 4:0.65 5:0.3241996 6:0.5004995 7:1 8:0.75 9:11 10:8 11:11 
-100000 1:0.5 2:1 3:1 4:0.65 5:0.3241996 6:0.5004995 7:1 8:0.75 9:11 10:9 11:11 
-100000 1:0.5 2:1 3:1 4:0.65 5:0.3241996 6:0.5004995 7:1 8:0.75 9:11 10:10 11:11 
-100000 1:0.5 2:1 3:1 4:0.65 5:0.3241996 6:0.5004995 7:1 8:0.75 9:12 10:7 11:11 
-100000 1:0.5 2:1 3:1 4:0.65 5:0.3241996 6:0.5004995 7:1 8:0.75 9:12 10:8 11:11 
-100000 1:0.5 2:1 3:1 4:0.65 5:0.3241996 6:0.5004995 7:1 8:0.75 9:12 10:9 11:11 
-100000 1:0.5 2:1 3:1 4:0.65 5:0.3241996 6:0.5004995 7:1 8:0.75 9:12 10:10 11:11 
-100000 1:0.5 2:1 3:1 4:0.65 5:0.3241996 6:0.5004995 7:1 8:0.75 9:13 10:8 11:11 
-100000 1:0.5 2:1 3:1 4:0.65 5:0.3241996 6:0.5004995 7:1 8:0.75 9:14 10:9 11:11 
-16914.38302362611 1:0.5 2:1 3:1 4:0.65 5:0.3241996 6:0.5004995 7:1 8:0.75 9:15 10:8 11:11 
-100000 1:0.5 2:1 3:1 4:0.65 5:0.3241996 6:0.5004995 7:1 8:0.75 9:7 10:12 11:12 
-100000 1:0.5 2:1 3:1 4:0.65 5:0.3241996 6:0.5004995 7:1 8:0.75 9:8 10:11 11:12 
-100000 1:0.5 2:1 3:1 4:0.65 5:0.3241996 6:0.5004995 7:1 8:0.75 9:9 10:10 11:12 
-100000 1:0.5 2:1 3:1 4:0.65 5:0.3241996 6:0.5004995 7:1 8:0.75 9:9 10:11 11:12 
-100000 1:0.5 2:1 3:1 4:0.65 5:0.3241996 6:0.5004995 7:1 8:0.75 9:10 10:9 11:12 
-100000 1:0.5 2:1 3:1 4:0.65 5:0.3241996 6:0.5004995 7:1 8:0.75 9:10 10:10 11:12 
-100000 1:0.5 2:1 3:1 4:0.65 5:0.3241996 6:0.5004995 7:1 8:0.75 9:10 10:11 11:12 
-100000 1:0.5 2:1 3:1 4:0.65 5:0.3241996 6:0.5004995 7:1 8:0.75 9:10 10:13 11:12 
-2697.090577715464 1:0.5 2:1 3:1 4:0.65 5:0.3241996 6:0.5004995 7:1 8:0.75 9:10 10:14 11:12 
-100000 1:0.5 2:1 3:1 4:0.65 5:0.3241996 6:0.5004995 7:1 8:0.75 9:11 10:8 11:12 
-95317.54485523135 1:0.5 2:1 3:1 4:0.65 5:0.3241996 6:0.5004995 7:1 8:0.75 9:11 10:9 11:12 
-100000 1:0.5 2:1 3:1 4:0.65 5:0.3241996 6:0.5004995 7:1 8:0.75 9:12 10:7 11:12 
-100000 1:0.5 2:1 3:1 4:0.65 5:0.3241996 6:0.5004995 7:1 8:0.75 9:12 10:8 11:12 
-96448.38752922053 1:0.5 2:1 3:1 4:0.65 5:0.3241996 6:0.5004995 7:1 8:0.75 9:12 10:9 11:12 
-100000 1:0.5 2:1 3:1 4:0.65 5:0.3241996 6:0.5004995 7:1 8:0.75 9:13 10:8 11:12 
-100000 1:0.5 2:1 3:1 4:0.65 5:0.3241996 6:0.5004995 7:1 8:0.75 9:15 10:8 11:12 
-100000 1:0.5 2:1 3:1 4:0.65 5:0.3241996 6:0.5004995 7:1 8:0.75 9:7 10:12 11:13 
-100000 1:0.5 2:1 3:1 4:0.65 5:0.3241996 6:0.5004995 7:1 8:0.75 9:8 10:11 11:13 
-100000 1:0.5 2:1 3:1 4:0.65 5:0.3241996 6:0.5004995 7:1 8:0.75 9:8 10:12 11:13 
-100000 1:0.5 2:1 3:1 4:0.65 5:0.3241996 6:0.5004995 7:1 8:0.75 9:9 10:10 11:13 
-100000 1:0.5 2:1 3:1 4:0.65 5:0.3241996 6:0.5004995 7:1 8:0.75 9:9 10:11 11:13 
-100000 1:0.5 2:1 3:1 4:0.65 5:0.3241996 6:0.5004995 7:1 8:0.75 9:10 10:13 11:13 
-100000 1:0.5 2:1 3:1 4:0.65 5:0.3241996 6:0.5004995 7:1 8:0.75 9:10 10:14 11:13 
-100000 1:0.5 2:1 3:1 4:0.65 5:0.3241996 6:0.5004995 7:1 8:0.75 9:11 10:7 11:13 
-39584.81299428577 1:0.5 2:1 3:1 4:0.65 5:0.3241996 6:0.5004995 7:1 8:0.75 9:12 10:7 11:13 
-100000 1:0.5 2:1 3:1 4:0.65 5:0.3241996 6:0.5004995 7:1 8:0.75 9:13 10:8 11:13 
-100000 1:0.5 2:1 3:1 4:0.65 5:0.3241996 6:0.5004995 7:1 8:0.75 9:15 10:8 11:13 
-55843.82145830051 1:0.5 2:1 3:1 4:0.65 5:0.3241996 6:0.5004995 7:1 8:0.75 9:16 10:8 11:13 
-55259.45541198686 1:0.5 2:1 3:1 4:0.65 5:0.3241996 6:0.5004995 7:1 8:0.75 9:7 10:7 11:14 
-100000 1:0.5 2:1 3:1 4:0.65 5:0.3241996 6:0.5004995 7:1 8:0.75 9:7 10:8 11:14 
-100000 1:0.5 2:1 3:1 4:0.65 5:0.3241996 6:0.5004995 7:1 8:0.75 9:7 10:12 11:14 
-100000 1:0.5 2:1 3:1 4:0.65 5:0.3241996 6:0.5004995 7:1 8:0.75 9:8 10:7 11:14 
-100000 1:0.5 2:1 3:1 4:0.65 5:0.3241996 6:0.5004995 7:1 8:0.75 9:8 10:11 11:14 
-100000 1:0.5 2:1 3:1 4:0.65 5:0.3241996 6:0.5004995 7:1 8:0.75 9:9 10:9 11:14 
-100000 1:0.5 2:1 3:1 4:0.65 5:0.3241996 6:0.5004995 7:1 8:0.75 9:9 10:10 11:14 
-100000 1:0.5 2:1 3:1 4:0.65 5:0.3241996 6:0.5004995 7:1 8:0.75 9:9 10:11 11:14 
-100000 1:0.5 2:1 3:1 4:0.65 5:0.3241996 6:0.5004995 7:1 8:0.75 9:10 10:8 11:14 
-100000 1:0.5 2:1 3:1 4:0.65 5:0.3241996 6:0.5004995 7:1 8:0.75 9:10 10:14 11:14 
-100000 1:0.5 2:1 3:1 4:0.65 5:0.3241996 6:0.5004995 7:1 8:0.75 9:11 10:7 11:14 
-100000 1:0.5 2:1 3:1 4:0.65 5:0.3241996 6:0.5004995 7:1 8:0.75 9:14 10:9 11:14 
-100000 1:0.5 2:1 3:1 4:0.65 5:0.3241996 6:0.5004995 7:1 8:0.75 9:15 10:9 11:14 
-100000 1:0.5 2:1 3:1 4:0.65 5:0.3241996 6:0.5004995 7:1 8:0.75 9:7 10:8 11:15 
-100000 1:0.5 2:1 3:1 4:0.65 5:0.3241996 6:0.5004995 7:1 8:0.75 9:7 10:12 11:15 
-100000 1:0.5 2:1 3:1 4:0.65 5:0.3241996 6:0.5004995 7:1 8:0.75 9:8 10:7 11:15 
-100000 1:0.5 2:1 3:1 4:0.65 5:0.3241996 6:0.5004995 7:1 8:0.75 9:8 10:11 11:15 
-100000 1:0.5 2:1 3:1 4:0.65 5:0.3241996 6:0.5004995 7:1 8:0.75 9:9 10:9 11:15 
-100000 1:0.5 2:1 3:1 4:0.65 5:0.3241996 6:0.5004995 7:1 8:0.75 9:9 10:10 11:15 
-100000 1:0.5 2:1 3:1 4:0.65 5:0.3241996 6:0.5004995 7:1 8:0.75 9:9 10:11 11:15 
-46773.07547622467 1:0.5 2:1 3:1 4:0.65 5:0.3241996 6:0.5004995 7:1 8:0.75 9:10 10:8 11:15 
-100000 1:0.5 2:1 3:1 4:0.65 5:0.3241996 6:0.5004995 7:1 8:0.75 9:10 10:13 11:15 
-100000 1:0.5 2:1 3:1 4:0.65 5:0.3241996 6:0.5004995 7:1 8:0.75 9:10 10:14 11:15 
-42048.04843821174 1:0.5 2:1 3:1 4:0.65 5:0.3241996 6:0.5004995 7:1 8:0.75 9:10 10:15 11:15 
-14656.82776680081 1:0.5 2:1 3:1 4:0.65 5:0.3241996 6:0.5004995 7:1 8:0.75 9:13 10:10 11:15 
-100000 1:0.5 2:1 3:1 4:0.65 5:0.3241996 6:0.5004995 7:1 8:0.75 9:14 10:10 11:15 
-3441.596907161711 1:0.5 2:1 3:1 4:0.65 5:0.3241996 6:0.5004995 7:1 8:0.75 9:15 10:10 11:15 
-100000 1:0.5 2:1 3:1 4:0.65 5:0.3241996 6:0.5004995 7:1 8:0.75 9:16 10:8 11:15 
-51374.69699698935 1:0.5 2:1 3:1 4:0.65 5:0.3241996 6:0.5004995 7:1 8:0.75 9:16 10:10 11:15 
-100000 1:0.5 2:1 3:1 4:0.65 5:0.3241996 6:0.5004995 7:1 8:0.75 9:7 10:8 11:16 
-100000 1:0.5 2:1 3:1 4:0.65 5:0.3241996 6:0.5004995 7:1 8:0.75 9:7 10:12 11:16 
-61982.53577111051 1:0.5 2:1 3:1 4:0.65 5:0.3241996 6:0.5004995 7:1 8:0.75 9:7 10:13 11:16 
-79444.08034928485 1:0.5 2:1 3:1 4:0.65 5:0.3241996 6:0.5004995 7:1 8:0.75 9:8 10:7 11:16 
-100000 1:0.5 2:1 3:1 4:0.65 5:0.3241996 6:0.5004995 7:1 8:0.75 9:8 10:11 11:16 
-100000 1:0.5 2:1 3:1 4:0.65 5:0.3241996 6:0.5004995 7:1 8:0.75 9:8 10:13 11:16 
-100000 1:0.5 2:1 3:1 4:0.65 5:0.3241996 6:0.5004995 7:1 8:0.75 9:9 10:7 11:16 
-100000 1:0.5 2:1 3:1 4:0.65 5:0.3241996 6:0.5004995 7:1 8:0.75 9:9 10:9 11:16 
-100000 1:0.5 2:1 3:1 4:0.65 5:0.3241996 6:0.5004995 7:1 8:0.75 9:9 10:10 11:16 
-100000 1:0.5 2:1 3:1 4:0.65 5:0.3241996 6:0.5004995 7:1 8:0.75 9:9 10:13 11:16 
-100000 1:0.5 2:1 3:1 4:0.65 5:0.3241996 6:0.5004995 7:1 8:0.75 9:10 10:11 11:16 
-72321.80260977949 1:0.5 2:1 3:1 4:0.65 5:0.3241996 6:0.5004995 7:1 8:0.75 9:11 10:11 11:16 
-100000 1:0.5 2:1 3:1 4:0.65 5:0.3241996 6:0.5004995 7:1 8:0.75 9:11 10:12 11:16 
-52707.25282688346 1:0.5 2:1 3:1 4:0.65 5:0.3241996 6:0.5004995 7:1 8:0.75 9:11 10:13 11:16 
-61057.3299516428 1:0.5 2:1 3:1 4:0.65 5:0.3241996 6:0.5004995 7:1 8:0.75 9:12 10:9 11:16 
-10246.83833925434 1:0.5 2:1 3:1 4:0.65 5:0.3241996 6:0.5004995 7:1 8:0.75 9:12 10:11 11:16 
-100000 1:0.5 2:1 3:1 4:0.65 5:0.3241996 6:0.5004995 7:1 8:0.75 9:13 10:9 11:16 
-100000 1:0.5 2:1 3:1 4:0.65 5:0.3241996 6:0.5004995 7:1 8:0.75 9:13 10:11 11:16 
-100000 1:0.5 2:1 3:1 4:0.65 5:0.3241996 6:0.5004995 7:1 8:0.75 9:14 10:9 11:16 
-40047.10940435628 1:0.5 2:1 3:1 4:0.65 5:0.3241996 6:0.5004995 7:1 8:0.75 9:14 10:11 11:16 
-100000 1:0.5 2:1 3:1 4:0.65 5:0.3241996 6:0.5004995 7:1 8:0.75 9:15 10:9 11:16 
-92214.32999007485 1:0.83333333 2:0.28571429 3:0.35223833 4:0.8 5:0.73752524 6:0.7002997 7:0.66666667 8:1 9:13 10:16 11:7 
-100000 1:0.83333333 2:0.28571429 3:0.35223833 4:0.8 5:0.73752524 6:0.7002997 7:0.66666667 8:1 9:15 10:13 11:7 
-29303.47018381354 1:0.83333333 2:0.28571429 3:0.35223833 4:0.8 5:0.73752524 6:0.7002997 7:0.66666667 8:1 9:16 10:13 11:7 
-100000 1:0.83333333 2:0.28571429 3:0.35223833 4:0.8 5:0.73752524 6:0.7002997 7:0.66666667 8:1 9:9 10:16 11:8 
-100000 1:0.83333333 2:0.28571429 3:0.35223833 4:0.8 5:0.73752524 6:0.7002997 7:0.66666667 8:1 9:10 10:14 11:8 
-100000 1:0.83333333 2:0.28571429 3:0.35223833 4:0.8 5:0.73752524 6:0.7002997 7:0.66666667 8:1 9:10 10:15 11:8 
-100000 1:0.83333333 2:0.28571429 3:0.35223833 4:0.8 5:0.73752524 6:0.7002997 7:0.66666667 8:1 9:10 10:16 11:8 
-100000 1:0.83333333 2:0.28571429 3:0.35223833 4:0.8 5:0.73752524 6:0.7002997 7:0.66666667 8:1 9:11 10:14 11:8 
-100000 1:0.83333333 2:0.28571429 3:0.35223833 4:0.8 5:0.73752524 6:0.7002997 7:0.66666667 8:1 9:12 10:13 11:8 
-100000 1:0.83333333 2:0.28571429 3:0.35223833 4:0.8 5:0.73752524 6:0.7002997 7:0.66666667 8:1 9:13 10:12 11:8 
-100000 1:0.83333333 2:0.28571429 3:0.35223833 4:0.8 5:0.73752524 6:0.7002997 7:0.66666667 8:1 9:14 10:11 11:8 
-100000 1:0.83333333 2:0.28571429 3:0.35223833 4:0.8 5:0.73752524 6:0.7002997 7:0.66666667 8:1 9:15 10:7 11:8 
-100000 1:0.83333333 2:0.28571429 3:0.35223833 4:0.8 5:0.73752524 6:0.7002997 7:0.66666667 8:1 9:15 10:11 11:8 
-26057.35989779237 1:0.83333333 2:0.28571429 3:0.35223833 4:0.8 5:0.73752524 6:0.7002997 7:0.66666667 8:1 9:16 10:11 11:8 
-100000 1:0.83333333 2:0.28571429 3:0.35223833 4:0.8 5:0.73752524 6:0.7002997 7:0.66666667 8:1 9:11 10:8 11:9 
-100000 1:0.83333333 2:0.28571429 3:0.35223833 4:0.8 5:0.73752524 6:0.7002997 7:0.66666667 8:1 9:12 10:12 11:9 
-100000 1:0.83333333 2:0.28571429 3:0.35223833 4:0.8 5:0.73752524 6:0.7002997 7:0.66666667 8:1 9:12 10:13 11:9 
-100000 1:0.83333333 2:0.28571429 3:0.35223833 4:0.8 5:0.73752524 6:0.7002997 7:0.66666667 8:1 9:13 10:12 11:9 
-100000 1:0.83333333 2:0.28571429 3:0.35223833 4:0.8 5:0.73752524 6:0.7002997 7:0.66666667 8:1 9:10 10:15 11:10 
-100000 1:0.83333333 2:0.28571429 3:0.35223833 4:0.8 5:0.73752524 6:0.7002997 7:0.66666667 8:1 9:10 10:16 11:10 
-100000 1:0.83333333 2:0.28571429 3:0.35223833 4:0.8 5:0.73752524 6:0.7002997 7:0.66666667 8:1 9:11 10:12 11:10 
-100000 1:0.83333333 2:0.28571429 3:0.35223833 4:0.8 5:0.73752524 6:0.7002997 7:0.66666667 8:1 9:11 10:15 11:10 
-100000 1:0.83333333 2:0.28571429 3:0.35223833 4:0.8 5:0.73752524 6:0.7002997 7:0.66666667 8:1 9:11 10:16 11:10 
-100000 1:0.83333333 2:0.28571429 3:0.35223833 4:0.8 5:0.73752524 6:0.7002997 7:0.66666667 8:1 9:12 10:13 11:10 
-100000 1:0.83333333 2:0.28571429 3:0.35223833 4:0.8 5:0.73752524 6:0.7002997 7:0.66666667 8:1 9:12 10:14 11:10 
-100000 1:0.83333333 2:0.28571429 3:0.35223833 4:0.8 5:0.73752524 6:0.7002997 7:0.66666667 8:1 9:14 10:11 11:10 
-100000 1:0.83333333 2:0.28571429 3:0.35223833 4:0.8 5:0.73752524 6:0.7002997 7:0.66666667 8:1 9:16 10:10 11:10 
-100000 1:0.83333333 2:0.28571429 3:0.35223833 4:0.8 5:0.73752524 6:0.7002997 7:0.66666667 8:1 9:12 10:13 11:11 
-100000 1:0.83333333 2:0.28571429 3:0.35223833 4:0.8 5:0.73752524 6:0.7002997 7:0.66666667 8:1 9:12 10:16 11:11 
-100000 1:0.83333333 2:0.28571429 3:0.35223833 4:0.8 5:0.73752524 6:0.7002997 7:0.66666667 8:1 9:13 10:12 11:11 
-100000 1:0.83333333 2:0.28571429 3:0.35223833 4:0.8 5:0.73752524 6:0.7002997 7:0.66666667 8:1 9:13 10:14 11:11 
-67090.43009379265 1:0.83333333 2:0.28571429 3:0.35223833 4:0.8 5:0.73752524 6:0.7002997 7:0.66666667 8:1 9:13 10:16 11:11 
-100000 1:0.83333333 2:0.28571429 3:0.35223833 4:0.8 5:0.73752524 6:0.7002997 7:0.66666667 8:1 9:14 10:11 11:11 
-72439.56073519733 1:0.83333333 2:0.28571429 3:0.35223833 4:0.8 5:0.73752524 6:0.7002997 7:0.66666667 8:1 9:14 10:12 11:11 
-100000 1:0.83333333 2:0.28571429 3:0.35223833 4:0.8 5:0.73752524 6:0.7002997 7:0.66666667 8:1 9:15 10:10 11:11 
-100000 1:0.83333333 2:0.28571429 3:0.35223833 4:0.8 5:0.73752524 6:0.7002997 7:0.66666667 8:1 9:16 10:9 11:11 
-100000 1:0.83333333 2:0.28571429 3:0.35223833 4:0.8 5:0.73752524 6:0.7002997 7:0.66666667 8:1 9:10 10:10 11:12 
-100000 1:0.83333333 2:0.28571429 3:0.35223833 4:0.8 5:0.73752524 6:0.7002997 7:0.66666667 8:1 9:12 10:12 11:12 
-100000 1:0.83333333 2:0.28571429 3:0.35223833 4:0.8 5:0.73752524 6:0.7002997 7:0.66666667 8:1 9:13 10:11 11:12 
-100000 1:0.83333333 2:0.28571429 3:0.35223833 4:0.8 5:0.73752524 6:0.7002997 7:0.66666667 8:1 9:13 10:14 11:12 
-100000 1:0.83333333 2:0.28571429 3:0.35223833 4:0.8 5:0.73752524 6:0.7002997 7:0.66666667 8:1 9:13 10:15 11:12 
-100000 1:0.83333333 2:0.28571429 3:0.35223833 4:0.8 5:0.73752524 6:0.7002997 7:0.66666667 8:1 9:15 10:9 11:12 
-64846.06724137085 1:0.83333333 2:0.28571429 3:0.35223833 4:0.8 5:0.73752524 6:0.7002997 7:0.66666667 8:1 9:16 10:9 11:12 
-100000 1:0.83333333 2:0.28571429 3:0.35223833 4:0.8 5:0.73752524 6:0.7002997 7:0.66666667 8:1 9:8 10:14 11:13 
-100000 1:0.83333333 2:0.28571429 3:0.35223833 4:0.8 5:0.73752524 6:0.7002997 7:0.66666667 8:1 9:8 10:15 11:13 
-100000 1:0.83333333 2:0.28571429 3:0.35223833 4:0.8 5:0.73752524 6:0.7002997 7:0.66666667 8:1 9:9 10:10 11:13 
-100000 1:0.83333333 2:0.28571429 3:0.35223833 4:0.8 5:0.73752524 6:0.7002997 7:0.66666667 8:1 9:9 10:12 11:13 
-100000 1:0.83333333 2:0.28571429 3:0.35223833 4:0.8 5:0.73752524 6:0.7002997 7:0.66666667 8:1 9:9 10:13 11:13 
-100000 1:0.83333333 2:0.28571429 3:0.35223833 4:0.8 5:0.73752524 6:0.7002997 7:0.66666667 8:1 9:9 10:14 11:13 
-100000 1:0.83333333 2:0.28571429 3:0.35223833 4:0.8 5:0.73752524 6:0.7002997 7:0.66666667 8:1 9:9 10:15 11:13 
-100000 1:0.83333333 2:0.28571429 3:0.35223833 4:0.8 5:0.73752524 6:0.7002997 7:0.66666667 8:1 9:10 10:9 11:13 
-100000 1:0.83333333 2:0.28571429 3:0.35223833 4:0.8 5:0.73752524 6:0.7002997 7:0.66666667 8:1 9:10 10:10 11:13 
-100000 1:0.83333333 2:0.28571429 3:0.35223833 4:0.8 5:0.73752524 6:0.7002997 7:0.66666667 8:1 9:10 10:12 11:13 
-100000 1:0.83333333 2:0.28571429 3:0.35223833 4:0.8 5:0.73752524 6:0.7002997 7:0.66666667 8:1 9:10 10:13 11:13 
-100000 1:0.83333333 2:0.28571429 3:0.35223833 4:0.8 5:0.73752524 6:0.7002997 7:0.66666667 8:1 9:10 10:14 11:13 
-97066.00692269111 1:0.83333333 2:0.28571429 3:0.35223833 4:0.8 5:0.73752524 6:0.7002997 7:0.66666667 8:1 9:10 10:15 11:13 
-100000 1:0.83333333 2:0.28571429 3:0.35223833 4:0.8 5:0.73752524 6:0.7002997 7:0.66666667 8:1 9:11 10:11 11:13 
-100000 1:0.83333333 2:0.28571429 3:0.35223833 4:0.8 5:0.73752524 6:0.7002997 7:0.66666667 8:1 9:11 10:12 11:13 
-100000 1:0.83333333 2:0.28571429 3:0.35223833 4:0.8 5:0.73752524 6:0.7002997 7:0.66666667 8:1 9:11 10:13 11:13 
-29668.03517967624 1:0.83333333 2:0.28571429 3:0.35223833 4:0.8 5:0.73752524 6:0.7002997 7:0.66666667 8:1 9:11 10:14 11:13 
-100000 1:0.83333333 2:0.28571429 3:0.35223833 4:0.8 5:0.73752524 6:0.7002997 7:0.66666667 8:1 9:12 10:7 11:13 
-100000 1:0.83333333 2:0.28571429 3:0.35223833 4:0.8 5:0.73752524 6:0.7002997 7:0.66666667 8:1 9:12 10:10 11:13 
-100000 1:0.83333333 2:0.28571429 3:0.35223833 4:0.8 5:0.73752524 6:0.7002997 7:0.66666667 8:1 9:12 10:11 11:13 
-30916.66785166074 1:0.83333333 2:0.28571429 3:0.35223833 4:0.8 5:0.73752524 6:0.7002997 7:0.66666667 8:1 9:12 10:12 11:13 
-90363.1328349809 1:0.83333333 2:0.28571429 3:0.35223833 4:0.8 5:0.73752524 6:0.7002997 7:0.66666667 8:1 9:12 10:15 11:13 
-100000 1:0.83333333 2:0.28571429 3:0.35223833 4:0.8 5:0.73752524 6:0.7002997 7:0.66666667 8:1 9:13 10:9 11:13 
-100000 1:0.83333333 2:0.28571429 3:0.35223833 4:0.8 5:0.73752524 6:0.7002997 7:0.66666667 8:1 9:13 10:10 11:13 
-100000 1:0.83333333 2:0.28571429 3:0.35223833 4:0.8 5:0.73752524 6:0.7002997 7:0.66666667 8:1 9:13 10:11 11:13 
-100000 1:0.83333333 2:0.28571429 3:0.35223833 4:0.8 5:0.73752524 6:0.7002997 7:0.66666667 8:1 9:14 10:7 11:13 
-100000 1:0.83333333 2:0.28571429 3:0.35223833 4:0.8 5:0.73752524 6:0.7002997 7:0.66666667 8:1 9:14 10:9 11:13 
-100000 1:0.83333333 2:0.28571429 3:0.35223833 4:0.8 5:0.73752524 6:0.7002997 7:0.66666667 8:1 9:15 10:7 11:13 
-46442.01942572749 1:0.83333333 2:0.28571429 3:0.35223833 4:0.8 5:0.73752524 6:0.7002997 7:0.66666667 8:1 9:15 10:8 11:13 
-100000 1:0.83333333 2:0.28571429 3:0.35223833 4:0.8 5:0.73752524 6:0.7002997 7:0.66666667 8:1 9:8 10:13 11:14 
-100000 1:0.83333333 2:0.28571429 3:0.35223833 4:0.8 5:0.73752524 6:0.7002997 7:0.66666667 8:1 9:8 10:14 11:14 
-100000 1:0.83333333 2:0.28571429 3:0.35223833 4:0.8 5:0.73752524 6:0.7002997 7:0.66666667 8:1 9:9 10:10 11:14 
-100000 1:0.83333333 2:0.28571429 3:0.35223833 4:0.8 5:0.73752524 6:0.7002997 7:0.66666667 8:1 9:10 10:8 11:14 
-100000 1:0.83333333 2:0.28571429 3:0.35223833 4:0.8 5:0.73752524 6:0.7002997 7:0.66666667 8:1 9:10 10:9 11:14 
-100000 1:0.83333333 2:0.28571429 3:0.35223833 4:0.8 5:0.73752524 6:0.7002997 7:0.66666667 8:1 9:13 10:7 11:14 
-100000 1:0.83333333 2:0.28571429 3:0.35223833 4:0.8 5:0.73752524 6:0.7002997 7:0.66666667 8:1 9:13 10:8 11:14 
-100000 1:0.83333333 2:0.28571429 3:0.35223833 4:0.8 5:0.73752524 6:0.7002997 7:0.66666667 8:1 9:8 10:10 11:15 
-100000 1:0.83333333 2:0.28571429 3:0.35223833 4:0.8 5:0.73752524 6:0.7002997 7:0.66666667 8:1 9:8 10:12 11:15 
-65055.79618053057 1:0.83333333 2:0.28571429 3:0.35223833 4:0.8 5:0.73752524 6:0.7002997 7:0.66666667 8:1 9:9 10:9 11:15 
-100000 1:0.83333333 2:0.28571429 3:0.35223833 4:0.8 5:0.73752524 6:0.7002997 7:0.66666667 8:1 9:10 10:8 11:15 
-100000 1:0.83333333 2:0.28571429 3:0.35223833 4:0.8 5:0.73752524 6:0.7002997 7:0.66666667 8:1 9:7 10:10 11:16 
-100000 1:0.83333333 2:0.28571429 3:0.35223833 4:0.8 5:0.73752524 6:0.7002997 7:0.66666667 8:1 9:8 10:9 11:16 
-58903.40627224879 1:0.83333333 2:0.28571429 3:0.35223833 4:0.8 5:0.73752524 6:0.7002997 7:0.66666667 8:1 9:8 10:10 11:16 
-100000 1:0.83333333 2:0.28571429 3:0.35223833 4:0.8 5:0.73752524 6:0.7002997 7:0.66666667 8:1 9:9 10:8 11:16 
-100000 1:0.83333333 2:0.28571429 3:0.35223833 4:0.8 5:0.73752524 6:0.7002997 7:0.66666667 8:1 9:10 10:7 11:16 
-100000 1:1 2:0.14285714 3:0.70922431 4:1 5:1 6:1 7:0.66666667 8:1 9:7 10:8 11:7 
-100000 1:1 2:0.14285714 3:0.70922431 4:1 5:1 6:1 7:0.66666667 8:1 9:8 10:9 11:7 
-100000 1:1 2:0.14285714 3:0.70922431 4:1 5:1 6:1 7:0.66666667 8:1 9:9 10:7 11:7 
-100000 1:1 2:0.14285714 3:0.70922431 4:1 5:1 6:1 7:0.66666667 8:1 9:9 10:10 11:7 
-100000 1:1 2:0.14285714 3:0.70922431 4:1 5:1 6:1 7:0.66666667 8:1 9:10 10:9 11:7 
-100000 1:1 2:0.14285714 3:0.70922431 4:1 5:1 6:1 7:0.66666667 8:1 9:11 10:7 11:7 
-100000 1:1 2:0.14285714 3:0.70922431 4:1 5:1 6:1 7:0.66666667 8:1 9:11 10:8 11:7 
-100000 1:1 2:0.14285714 3:0.70922431 4:1 5:1 6:1 7:0.66666667 8:1 9:11 10:15 11:7 
-100000 1:1 2:0.14285714 3:0.70922431 4:1 5:1 6:1 7:0.66666667 8:1 9:12 10:10 11:7 
-100000 1:1 2:0.14285714 3:0.70922431 4:1 5:1 6:1 7:0.66666667 8:1 9:12 10:11 11:7 
-92583.44105028916 1:1 2:0.14285714 3:0.70922431 4:1 5:1 6:1 7:0.66666667 8:1 9:12 10:14 11:7 
-100000 1:1 2:0.14285714 3:0.70922431 4:1 5:1 6:1 7:0.66666667 8:1 9:13 10:11 11:7 
-9857.978469048163 1:1 2:0.14285714 3:0.70922431 4:1 5:1 6:1 7:0.66666667 8:1 9:13 10:13 11:7 
-100000 1:1 2:0.14285714 3:0.70922431 4:1 5:1 6:1 7:0.66666667 8:1 9:14 10:11 11:7 
-100000 1:1 2:0.14285714 3:0.70922431 4:1 5:1 6:1 7:0.66666667 8:1 9:15 10:10 11:7 
-99264.280074095 1:1 2:0.14285714 3:0.70922431 4:1 5:1 6:1 7:0.66666667 8:1 9:15 10:11 11:7 
-100000 1:1 2:0.14285714 3:0.70922431 4:1 5:1 6:1 7:0.66666667 8:1 9:16 10:7 11:7 
-100000 1:1 2:0.14285714 3:0.70922431 4:1 5:1 6:1 7:0.66666667 8:1 9:16 10:10 11:7 
-100000 1:1 2:0.14285714 3:0.70922431 4:1 5:1 6:1 7:0.66666667 8:1 9:9 10:8 11:8 
-100000 1:1 2:0.14285714 3:0.70922431 4:1 5:1 6:1 7:0.66666667 8:1 9:9 10:14 11:8 
-100000 1:1 2:0.14285714 3:0.70922431 4:1 5:1 6:1 7:0.66666667 8:1 9:9 10:15 11:8 
-15871.46087041243 1:1 2:0.14285714 3:0.70922431 4:1 5:1 6:1 7:0.66666667 8:1 9:9 10:16 11:8 
-100000 1:1 2:0.14285714 3:0.70922431 4:1 5:1 6:1 7:0.66666667 8:1 9:10 10:8 11:8 
-100000 1:1 2:0.14285714 3:0.70922431 4:1 5:1 6:1 7:0.66666667 8:1 9:10 10:9 11:8 
-100000 1:1 2:0.14285714 3:0.70922431 4:1 5:1 6:1 7:0.66666667 8:1 9:12 10:10 11:8 
-100000 1:1 2:0.14285714 3:0.70922431 4:1 5:1 6:1 7:0.66666667 8:1 9:12 10:12 11:8 
-100000 1:1 2:0.14285714 3:0.70922431 4:1 5:1 6:1 7:0.66666667 8:1 9:13 10:8 11:8 
-100000 1:1 2:0.14285714 3:0.70922431 4:1 5:1 6:1 7:0.66666667 8:1 9:13 10:9 11:8 
-100000 1:1 2:0.14285714 3:0.70922431 4:1 5:1 6:1 7:0.66666667 8:1 9:13 10:10 11:8 
-100000 1:1 2:0.14285714 3:0.70922431 4:1 5:1 6:1 7:0.66666667 8:1 9:14 10:9 11:8 
-100000 1:1 2:0.14285714 3:0.70922431 4:1 5:1 6:1 7:0.66666667 8:1 9:14 10:10 11:8 
-100000 1:1 2:0.14285714 3:0.70922431 4:1 5:1 6:1 7:0.66666667 8:1 9:16 10:7 11:8 
-100000 1:1 2:0.14285714 3:0.70922431 4:1 5:1 6:1 7:0.66666667 8:1 9:16 10:9 11:8 
-100000 1:1 2:0.14285714 3:0.70922431 4:1 5:1 6:1 7:0.66666667 8:1 9:10 10:13 11:9 
-90716.27061850851 1:1 2:0.14285714 3:0.70922431 4:1 5:1 6:1 7:0.66666667 8:1 9:12 10:12 11:9 
-100000 1:1 2:0.14285714 3:0.70922431 4:1 5:1 6:1 7:0.66666667 8:1 9:14 10:9 11:9 
-100000 1:1 2:0.14285714 3:0.70922431 4:1 5:1 6:1 7:0.66666667 8:1 9:15 10:9 11:9 
-100000 1:1 2:0.14285714 3:0.70922431 4:1 5:1 6:1 7:0.66666667 8:1 9:16 10:8 11:9 
-100000 1:1 2:0.14285714 3:0.70922431 4:1 5:1 6:1 7:0.66666667 8:1 9:16 10:9 11:9 
-100000 1:1 2:0.14285714 3:0.70922431 4:1 5:1 6:1 7:0.66666667 8:1 9:9 10:14 11:10 
-100000 1:1 2:0.14285714 3:0.70922431 4:1 5:1 6:1 7:0.66666667 8:1 9:10 10:13 11:10 
-100000 1:1 2:0.14285714 3:0.70922431 4:1 5:1 6:1 7:0.66666667 8:1 9:11 10:12 11:10 
-100000 1:1 2:0.14285714 3:0.70922431 4:1 5:1 6:1 7:0.66666667 8:1 9:12 10:12 11:10 
-100000 1:1 2:0.14285714 3:0.70922431 4:1 5:1 6:1 7:0.66666667 8:1 9:14 10:8 11:10 
-100000 1:1 2:0.14285714 3:0.70922431 4:1 5:1 6:1 7:0.66666667 8:1 9:14 10:11 11:10 
-100000 1:1 2:0.14285714 3:0.70922431 4:1 5:1 6:1 7:0.66666667 8:1 9:15 10:8 11:10 
-100000 1:1 2:0.14285714 3:0.70922431 4:1 5:1 6:1 7:0.66666667 8:1 9:16 10:7 11:10 
-100000 1:1 2:0.14285714 3:0.70922431 4:1 5:1 6:1 7:0.66666667 8:1 9:16 10:8 11:10 
-100000 1:1 2:0.14285714 3:0.70922431 4:1 5:1 6:1 7:0.66666667 8:1 9:8 10:15 11:11 
-100000 1:1 2:0.14285714 3:0.70922431 4:1 5:1 6:1 7:0.66666667 8:1 9:8 10:16 11:11 
-100000 1:1 2:0.14285714 3:0.70922431 4:1 5:1 6:1 7:0.66666667 8:1 9:9 10:13 11:11 
-100000 1:1 2:0.14285714 3:0.70922431 4:1 5:1 6:1 7:0.66666667 8:1 9:11 10:12 11:11 
-100000 1:1 2:0.14285714 3:0.70922431 4:1 5:1 6:1 7:0.66666667 8:1 9:12 10:7 11:11 
-100000 1:1 2:0.14285714 3:0.70922431 4:1 5:1 6:1 7:0.66666667 8:1 9:12 10:12 11:11 
-100000 1:1 2:0.14285714 3:0.70922431 4:1 5:1 6:1 7:0.66666667 8:1 9:13 10:7 11:11 
-100000 1:1 2:0.14285714 3:0.70922431 4:1 5:1 6:1 7:0.66666667 8:1 9:13 10:12 11:11 
-100000 1:1 2:0.14285714 3:0.70922431 4:1 5:1 6:1 7:0.66666667 8:1 9:16 10:9 11:11 
-100000 1:1 2:0.14285714 3:0.70922431 4:1 5:1 6:1 7:0.66666667 8:1 9:16 10:10 11:11 
-18783.41087899777 1:1 2:0.14285714 3:0.70922431 4:1 5:1 6:1 7:0.66666667 8:1 9:10 10:12 11:12 
-58849.51592420231 1:1 2:0.14285714 3:0.70922431 4:1 5:1 6:1 7:0.66666667 8:1 9:13 10:12 11:12 
-100000 1:1 2:0.14285714 3:0.70922431 4:1 5:1 6:1 7:0.66666667 8:1 9:14 10:10 11:12 
-100000 1:1 2:0.14285714 3:0.70922431 4:1 5:1 6:1 7:0.66666667 8:1 9:15 10:8 11:12 
-100000 1:1 2:0.14285714 3:0.70922431 4:1 5:1 6:1 7:0.66666667 8:1 9:15 10:10 11:12 
-48349.6567397056 1:1 2:0.14285714 3:0.70922431 4:1 5:1 6:1 7:0.66666667 8:1 9:15 10:11 11:12 
-100000 1:1 2:0.14285714 3:0.70922431 4:1 5:1 6:1 7:0.66666667 8:1 9:16 10:7 11:12 
-100000 1:1 2:0.14285714 3:0.70922431 4:1 5:1 6:1 7:0.66666667 8:1 9:16 10:9 11:12 
-100000 1:1 2:0.14285714 3:0.70922431 4:1 5:1 6:1 7:0.66666667 8:1 9:7 10:12 11:13 
-100000 1:1 2:0.14285714 3:0.70922431 4:1 5:1 6:1 7:0.66666667 8:1 9:7 10:13 11:13 
-100000 1:1 2:0.14285714 3:0.70922431 4:1 5:1 6:1 7:0.66666667 8:1 9:7 10:14 11:13 
-100000 1:1 2:0.14285714 3:0.70922431 4:1 5:1 6:1 7:0.66666667 8:1 9:8 10:12 11:13 
-100000 1:1 2:0.14285714 3:0.70922431 4:1 5:1 6:1 7:0.66666667 8:1 9:9 10:10 11:13 
-100000 1:1 2:0.14285714 3:0.70922431 4:1 5:1 6:1 7:0.66666667 8:1 9:10 10:9 11:13 
-46984.20410517724 1:1 2:0.14285714 3:0.70922431 4:1 5:1 6:1 7:0.66666667 8:1 9:11 10:10 11:13 
-100000 1:1 2:0.14285714 3:0.70922431 4:1 5:1 6:1 7:0.66666667 8:1 9:12 10:10 11:13 
-100000 1:1 2:0.14285714 3:0.70922431 4:1 5:1 6:1 7:0.66666667 8:1 9:13 10:8 11:13 
-100000 1:1 2:0.14285714 3:0.70922431 4:1 5:1 6:1 7:0.66666667 8:1 9:13 10:9 11:13 
-39112.7950919303 1:1 2:0.14285714 3:0.70922431 4:1 5:1 6:1 7:0.66666667 8:1 9:14 10:8 11:13 
-100000 1:1 2:0.14285714 3:0.70922431 4:1 5:1 6:1 7:0.66666667 8:1 9:14 10:9 11:13 
-99484.92205255637 1:1 2:0.14285714 3:0.70922431 4:1 5:1 6:1 7:0.66666667 8:1 9:14 10:10 11:13 
-100000 1:1 2:0.14285714 3:0.70922431 4:1 5:1 6:1 7:0.66666667 8:1 9:7 10:9 11:14 
-100000 1:1 2:0.14285714 3:0.70922431 4:1 5:1 6:1 7:0.66666667 8:1 9:7 10:10 11:14 
-100000 1:1 2:0.14285714 3:0.70922431 4:1 5:1 6:1 7:0.66666667 8:1 9:10 10:8 11:14 
-100000 1:1 2:0.14285714 3:0.70922431 4:1 5:1 6:1 7:0.66666667 8:1 9:11 10:7 11:14 
-18723.44554061758 1:1 2:0.14285714 3:0.70922431 4:1 5:1 6:1 7:0.66666667 8:1 9:11 10:8 11:14 
-100000 1:1 2:0.14285714 3:0.70922431 4:1 5:1 6:1 7:0.66666667 8:1 9:12 10:7 11:14 
-100000 1:1 2:0.14285714 3:0.70922431 4:1 5:1 6:1 7:0.66666667 8:1 9:7 10:8 11:15 
-100000 1:1 2:0.14285714 3:0.70922431 4:1 5:1 6:1 7:0.66666667 8:1 9:8 10:8 11:15 
-100000 1:1 2:0.14285714 3:0.70922431 4:1 5:1 6:1 7:0.66666667 8:1 9:10 10:7 11:15 
-20899.33056547085 1:1 2:0.14285714 3:0.70922431 4:1 5:1 6:1 7:0.66666667 8:1 9:7 10:7 11:16 
-100000 1:1 2:0.14285714 3:0.70922431 4:1 5:1 6:1 7:0.66666667 8:1 9:9 10:7 11:16 
